<?xml version="1.0" encoding="UTF-8" standalone="yes"?>
<PMML xmlns="http://www.dmg.org/PMML-4_4" xmlns:data="http://jpmml.org/jpmml-model/InlineTable" version="4.4">
	<Header>
		<Application name="JPMML-SkLearn" version="1.6.33"/>
		<Timestamp>2021-11-11T11:43:27Z</Timestamp>
	</Header>
	<MiningBuildTask>
		<Extension name="repr">PMMLPipeline(steps=[('classifier', RandomForestClassifier(max_depth=5, oob_score=True))])</Extension>
	</MiningBuildTask>
	<DataDictionary>
		<DataField name="y" optype="categorical" dataType="double">
			<Value value="1.0"/>
			<Value value="2.0"/>
			<Value value="3.0"/>
		</DataField>
		<DataField name="x1" optype="continuous" dataType="float"/>
		<DataField name="x2" optype="continuous" dataType="float"/>
		<DataField name="x3" optype="continuous" dataType="float"/>
		<DataField name="x4" optype="continuous" dataType="float"/>
		<DataField name="x5" optype="continuous" dataType="float"/>
		<DataField name="x6" optype="continuous" dataType="float"/>
		<DataField name="x7" optype="continuous" dataType="float"/>
		<DataField name="x8" optype="continuous" dataType="float"/>
		<DataField name="x9" optype="continuous" dataType="float"/>
		<DataField name="x10" optype="continuous" dataType="float"/>
		<DataField name="x11" optype="continuous" dataType="float"/>
		<DataField name="x12" optype="continuous" dataType="float"/>
		<DataField name="x13" optype="continuous" dataType="float"/>
		<DataField name="x14" optype="continuous" dataType="float"/>
		<DataField name="x15" optype="continuous" dataType="float"/>
		<DataField name="x16" optype="continuous" dataType="float"/>
	</DataDictionary>
	<MiningModel functionName="classification" algorithmName="sklearn.ensemble._forest.RandomForestClassifier">
		<MiningSchema>
			<MiningField name="y" usageType="target"/>
			<MiningField name="x1"/>
			<MiningField name="x11"/>
			<MiningField name="x14"/>
			<MiningField name="x8"/>
			<MiningField name="x6"/>
			<MiningField name="x12"/>
			<MiningField name="x2"/>
			<MiningField name="x7"/>
			<MiningField name="x10"/>
			<MiningField name="x4"/>
			<MiningField name="x3"/>
			<MiningField name="x5"/>
			<MiningField name="x15"/>
			<MiningField name="x9"/>
			<MiningField name="x13"/>
			<MiningField name="x16"/>
		</MiningSchema>
		<Output>
			<OutputField name="probability(1.0)" optype="continuous" dataType="double" feature="probability" value="1.0"/>
			<OutputField name="probability(2.0)" optype="continuous" dataType="double" feature="probability" value="2.0"/>
			<OutputField name="probability(3.0)" optype="continuous" dataType="double" feature="probability" value="3.0"/>
		</Output>
		<LocalTransformations>
			<DerivedField name="double(x1)" optype="continuous" dataType="double">
				<FieldRef field="x1"/>
			</DerivedField>
			<DerivedField name="double(x11)" optype="continuous" dataType="double">
				<FieldRef field="x11"/>
			</DerivedField>
			<DerivedField name="double(x14)" optype="continuous" dataType="double">
				<FieldRef field="x14"/>
			</DerivedField>
			<DerivedField name="double(x8)" optype="continuous" dataType="double">
				<FieldRef field="x8"/>
			</DerivedField>
			<DerivedField name="double(x6)" optype="continuous" dataType="double">
				<FieldRef field="x6"/>
			</DerivedField>
			<DerivedField name="double(x12)" optype="continuous" dataType="double">
				<FieldRef field="x12"/>
			</DerivedField>
			<DerivedField name="double(x2)" optype="continuous" dataType="double">
				<FieldRef field="x2"/>
			</DerivedField>
			<DerivedField name="double(x7)" optype="continuous" dataType="double">
				<FieldRef field="x7"/>
			</DerivedField>
			<DerivedField name="double(x10)" optype="continuous" dataType="double">
				<FieldRef field="x10"/>
			</DerivedField>
			<DerivedField name="double(x4)" optype="continuous" dataType="double">
				<FieldRef field="x4"/>
			</DerivedField>
			<DerivedField name="double(x3)" optype="continuous" dataType="double">
				<FieldRef field="x3"/>
			</DerivedField>
			<DerivedField name="double(x5)" optype="continuous" dataType="double">
				<FieldRef field="x5"/>
			</DerivedField>
			<DerivedField name="double(x15)" optype="continuous" dataType="double">
				<FieldRef field="x15"/>
			</DerivedField>
			<DerivedField name="double(x9)" optype="continuous" dataType="double">
				<FieldRef field="x9"/>
			</DerivedField>
			<DerivedField name="double(x13)" optype="continuous" dataType="double">
				<FieldRef field="x13"/>
			</DerivedField>
			<DerivedField name="double(x16)" optype="continuous" dataType="double">
				<FieldRef field="x16"/>
			</DerivedField>
		</LocalTransformations>
		<Segmentation multipleModelMethod="average">
			<Segment id="1">
				<True/>
				<TreeModel functionName="classification" missingValueStrategy="nullPrediction">
					<MiningSchema>
						<MiningField name="double(x1)"/>
						<MiningField name="double(x11)"/>
						<MiningField name="double(x14)"/>
						<MiningField name="double(x8)"/>
						<MiningField name="double(x6)"/>
						<MiningField name="double(x12)"/>
						<MiningField name="double(x2)"/>
						<MiningField name="double(x7)"/>
						<MiningField name="double(x10)"/>
						<MiningField name="double(x4)"/>
						<MiningField name="double(x3)"/>
						<MiningField name="double(x5)"/>
						<MiningField name="double(x15)"/>
						<MiningField name="double(x9)"/>
					</MiningSchema>
					<Node>
						<True/>
						<Node>
							<SimplePredicate field="double(x1)" operator="lessOrEqual" value="2.8263219594955444"/>
							<Node>
								<SimplePredicate field="double(x11)" operator="lessOrEqual" value="-0.20999908447265625"/>
								<Node>
									<SimplePredicate field="double(x14)" operator="lessOrEqual" value="0.008368948940187693"/>
									<Node>
										<SimplePredicate field="double(x8)" operator="lessOrEqual" value="34.690093994140625"/>
										<Node score="1.0" recordCount="1734">
											<SimplePredicate field="double(x6)" operator="lessOrEqual" value="0.02547010686248541"/>
											<ScoreDistribution value="1.0" recordCount="1264"/>
											<ScoreDistribution value="2.0" recordCount="0"/>
											<ScoreDistribution value="3.0" recordCount="470"/>
										</Node>
										<Node score="3.0" recordCount="583">
											<True/>
											<ScoreDistribution value="1.0" recordCount="227"/>
											<ScoreDistribution value="2.0" recordCount="0"/>
											<ScoreDistribution value="3.0" recordCount="356"/>
										</Node>
									</Node>
									<Node score="2.0" recordCount="307">
										<True/>
										<ScoreDistribution value="1.0" recordCount="0"/>
										<ScoreDistribution value="2.0" recordCount="307"/>
										<ScoreDistribution value="3.0" recordCount="0"/>
									</Node>
								</Node>
								<Node>
									<SimplePredicate field="double(x1)" operator="lessOrEqual" value="2.4280730485916138"/>
									<Node score="1.0" recordCount="2670">
										<SimplePredicate field="double(x12)" operator="lessOrEqual" value="0.9883575439453125"/>
										<ScoreDistribution value="1.0" recordCount="1951"/>
										<ScoreDistribution value="2.0" recordCount="683"/>
										<ScoreDistribution value="3.0" recordCount="36"/>
									</Node>
									<Node score="1.0" recordCount="7235">
										<True/>
										<ScoreDistribution value="1.0" recordCount="6747"/>
										<ScoreDistribution value="2.0" recordCount="22"/>
										<ScoreDistribution value="3.0" recordCount="466"/>
									</Node>
								</Node>
								<Node score="1.0" recordCount="366">
									<SimplePredicate field="double(x8)" operator="lessOrEqual" value="34.04832458496094"/>
									<ScoreDistribution value="1.0" recordCount="296"/>
									<ScoreDistribution value="2.0" recordCount="68"/>
									<ScoreDistribution value="3.0" recordCount="2"/>
								</Node>
								<Node score="3.0" recordCount="675">
									<True/>
									<ScoreDistribution value="1.0" recordCount="0"/>
									<ScoreDistribution value="2.0" recordCount="104"/>
									<ScoreDistribution value="3.0" recordCount="571"/>
								</Node>
							</Node>
							<Node>
								<SimplePredicate field="double(x8)" operator="lessOrEqual" value="31.70867919921875"/>
								<Node score="2.0" recordCount="752">
									<SimplePredicate field="double(x6)" operator="lessOrEqual" value="0.023829163052141666"/>
									<ScoreDistribution value="1.0" recordCount="0"/>
									<ScoreDistribution value="2.0" recordCount="752"/>
									<ScoreDistribution value="3.0" recordCount="0"/>
								</Node>
								<Node score="1.0" recordCount="411">
									<True/>
									<ScoreDistribution value="1.0" recordCount="411"/>
									<ScoreDistribution value="2.0" recordCount="0"/>
									<ScoreDistribution value="3.0" recordCount="0"/>
								</Node>
							</Node>
							<Node>
								<SimplePredicate field="double(x6)" operator="lessOrEqual" value="0.020077280700206757"/>
								<Node score="1.0" recordCount="46">
									<SimplePredicate field="double(x2)" operator="lessOrEqual" value="0.01908969320356846"/>
									<ScoreDistribution value="1.0" recordCount="38"/>
									<ScoreDistribution value="2.0" recordCount="0"/>
									<ScoreDistribution value="3.0" recordCount="8"/>
								</Node>
								<Node score="3.0" recordCount="717">
									<True/>
									<ScoreDistribution value="1.0" recordCount="0"/>
									<ScoreDistribution value="2.0" recordCount="0"/>
									<ScoreDistribution value="3.0" recordCount="717"/>
								</Node>
							</Node>
							<Node score="1.0" recordCount="56">
								<SimplePredicate field="double(x7)" operator="lessOrEqual" value="33.94789123535156"/>
								<ScoreDistribution value="1.0" recordCount="51"/>
								<ScoreDistribution value="2.0" recordCount="0"/>
								<ScoreDistribution value="3.0" recordCount="5"/>
							</Node>
							<Node score="3.0" recordCount="16">
								<True/>
								<ScoreDistribution value="1.0" recordCount="4"/>
								<ScoreDistribution value="2.0" recordCount="0"/>
								<ScoreDistribution value="3.0" recordCount="12"/>
							</Node>
						</Node>
						<Node>
							<SimplePredicate field="double(x10)" operator="lessOrEqual" value="0.3428056240081787"/>
							<Node>
								<SimplePredicate field="double(x2)" operator="lessOrEqual" value="0.015247750096023083"/>
								<Node>
									<SimplePredicate field="double(x4)" operator="lessOrEqual" value="3.7405014038085938"/>
									<Node score="3.0" recordCount="1498">
										<SimplePredicate field="double(x3)" operator="lessOrEqual" value="3.1856536865234375"/>
										<ScoreDistribution value="1.0" recordCount="183"/>
										<ScoreDistribution value="2.0" recordCount="295"/>
										<ScoreDistribution value="3.0" recordCount="1020"/>
									</Node>
									<Node score="2.0" recordCount="1247">
										<True/>
										<ScoreDistribution value="1.0" recordCount="105"/>
										<ScoreDistribution value="2.0" recordCount="1015"/>
										<ScoreDistribution value="3.0" recordCount="127"/>
									</Node>
								</Node>
								<Node score="3.0" recordCount="1911">
									<SimplePredicate field="double(x14)" operator="lessOrEqual" value="0.008426523767411709"/>
									<ScoreDistribution value="1.0" recordCount="467"/>
									<ScoreDistribution value="2.0" recordCount="268"/>
									<ScoreDistribution value="3.0" recordCount="1176"/>
								</Node>
								<Node score="1.0" recordCount="11484">
									<True/>
									<ScoreDistribution value="1.0" recordCount="7744"/>
									<ScoreDistribution value="2.0" recordCount="2591"/>
									<ScoreDistribution value="3.0" recordCount="1149"/>
								</Node>
							</Node>
							<Node score="1.0" recordCount="40">
								<SimplePredicate field="double(x5)" operator="lessOrEqual" value="31.033095359802246"/>
								<ScoreDistribution value="1.0" recordCount="40"/>
								<ScoreDistribution value="2.0" recordCount="0"/>
								<ScoreDistribution value="3.0" recordCount="0"/>
							</Node>
							<Node score="2.0" recordCount="1657">
								<SimplePredicate field="double(x15)" operator="lessOrEqual" value="-0.03787994384765625"/>
								<ScoreDistribution value="1.0" recordCount="50"/>
								<ScoreDistribution value="2.0" recordCount="1552"/>
								<ScoreDistribution value="3.0" recordCount="55"/>
							</Node>
							<Node score="2.0" recordCount="165">
								<True/>
								<ScoreDistribution value="1.0" recordCount="4"/>
								<ScoreDistribution value="2.0" recordCount="117"/>
								<ScoreDistribution value="3.0" recordCount="44"/>
							</Node>
						</Node>
						<Node>
							<SimplePredicate field="double(x2)" operator="lessOrEqual" value="0.00924267154186964"/>
							<Node>
								<SimplePredicate field="double(x5)" operator="lessOrEqual" value="33.9668083190918"/>
								<Node score="2.0" recordCount="125">
									<SimplePredicate field="double(x6)" operator="lessOrEqual" value="0.01666414365172386"/>
									<ScoreDistribution value="1.0" recordCount="10"/>
									<ScoreDistribution value="2.0" recordCount="114"/>
									<ScoreDistribution value="3.0" recordCount="1"/>
								</Node>
								<Node score="1.0" recordCount="296">
									<True/>
									<ScoreDistribution value="1.0" recordCount="229"/>
									<ScoreDistribution value="2.0" recordCount="61"/>
									<ScoreDistribution value="3.0" recordCount="6"/>
								</Node>
							</Node>
							<Node score="2.0" recordCount="1595">
								<SimplePredicate field="double(x1)" operator="lessOrEqual" value="8.1341552734375"/>
								<ScoreDistribution value="1.0" recordCount="17"/>
								<ScoreDistribution value="2.0" recordCount="1456"/>
								<ScoreDistribution value="3.0" recordCount="122"/>
							</Node>
							<Node score="3.0" recordCount="33">
								<True/>
								<ScoreDistribution value="1.0" recordCount="0"/>
								<ScoreDistribution value="2.0" recordCount="2"/>
								<ScoreDistribution value="3.0" recordCount="31"/>
							</Node>
						</Node>
						<Node>
							<SimplePredicate field="double(x7)" operator="lessOrEqual" value="31.685775756835938"/>
							<Node score="2.0" recordCount="1">
								<SimplePredicate field="double(x9)" operator="lessOrEqual" value="-0.15225429087877274"/>
								<ScoreDistribution value="1.0" recordCount="0"/>
								<ScoreDistribution value="2.0" recordCount="1"/>
								<ScoreDistribution value="3.0" recordCount="0"/>
							</Node>
							<Node score="1.0" recordCount="12">
								<True/>
								<ScoreDistribution value="1.0" recordCount="12"/>
								<ScoreDistribution value="2.0" recordCount="0"/>
								<ScoreDistribution value="3.0" recordCount="0"/>
							</Node>
						</Node>
						<Node score="2.0" recordCount="26">
							<SimplePredicate field="double(x4)" operator="lessOrEqual" value="2.9699325561523438"/>
							<ScoreDistribution value="1.0" recordCount="10"/>
							<ScoreDistribution value="2.0" recordCount="16"/>
							<ScoreDistribution value="3.0" recordCount="0"/>
						</Node>
						<Node score="2.0" recordCount="1840">
							<True/>
							<ScoreDistribution value="1.0" recordCount="39"/>
							<ScoreDistribution value="2.0" recordCount="1773"/>
							<ScoreDistribution value="3.0" recordCount="28"/>
						</Node>
					</Node>
				</TreeModel>
			</Segment>
			<Segment id="2">
				<True/>
				<TreeModel functionName="classification" missingValueStrategy="nullPrediction">
					<MiningSchema>
						<MiningField name="double(x1)"/>
						<MiningField name="double(x11)"/>
						<MiningField name="double(x8)"/>
						<MiningField name="double(x7)"/>
						<MiningField name="double(x10)"/>
						<MiningField name="double(x4)"/>
						<MiningField name="double(x3)"/>
						<MiningField name="double(x5)"/>
						<MiningField name="double(x15)"/>
						<MiningField name="double(x9)"/>
						<MiningField name="double(x13)"/>
					</MiningSchema>
					<Node>
						<True/>
						<Node>
							<SimplePredicate field="double(x11)" operator="lessOrEqual" value="-0.8732528686523438"/>
							<Node>
								<SimplePredicate field="double(x1)" operator="lessOrEqual" value="2.4654197692871094"/>
								<Node score="1.0" recordCount="58">
									<SimplePredicate field="double(x5)" operator="lessOrEqual" value="34.69209289550781"/>
									<ScoreDistribution value="1.0" recordCount="58"/>
									<ScoreDistribution value="2.0" recordCount="0"/>
									<ScoreDistribution value="3.0" recordCount="0"/>
								</Node>
								<Node score="2.0" recordCount="7">
									<True/>
									<ScoreDistribution value="1.0" recordCount="0"/>
									<ScoreDistribution value="2.0" recordCount="7"/>
									<ScoreDistribution value="3.0" recordCount="0"/>
								</Node>
							</Node>
							<Node>
								<SimplePredicate field="double(x7)" operator="lessOrEqual" value="34.70390319824219"/>
								<Node>
									<SimplePredicate field="double(x15)" operator="lessOrEqual" value="-0.1728973388671875"/>
									<Node score="2.0" recordCount="7">
										<SimplePredicate field="double(x9)" operator="lessOrEqual" value="0.11911939084529877"/>
										<ScoreDistribution value="1.0" recordCount="0"/>
										<ScoreDistribution value="2.0" recordCount="7"/>
										<ScoreDistribution value="3.0" recordCount="0"/>
									</Node>
									<Node score="1.0" recordCount="3">
										<True/>
										<ScoreDistribution value="1.0" recordCount="3"/>
										<ScoreDistribution value="2.0" recordCount="0"/>
										<ScoreDistribution value="3.0" recordCount="0"/>
									</Node>
								</Node>
								<Node score="1.0" recordCount="1">
									<SimplePredicate field="double(x5)" operator="lessOrEqual" value="31.393588066101074"/>
									<ScoreDistribution value="1.0" recordCount="1"/>
									<ScoreDistribution value="2.0" recordCount="0"/>
									<ScoreDistribution value="3.0" recordCount="0"/>
								</Node>
								<Node score="2.0" recordCount="945">
									<True/>
									<ScoreDistribution value="1.0" recordCount="3"/>
									<ScoreDistribution value="2.0" recordCount="931"/>
									<ScoreDistribution value="3.0" recordCount="11"/>
								</Node>
							</Node>
							<Node score="3.0" recordCount="93">
								<SimplePredicate field="double(x1)" operator="lessOrEqual" value="3.517810821533203"/>
								<ScoreDistribution value="1.0" recordCount="0"/>
								<ScoreDistribution value="2.0" recordCount="0"/>
								<ScoreDistribution value="3.0" recordCount="93"/>
							</Node>
							<Node score="2.0" recordCount="683">
								<True/>
								<ScoreDistribution value="1.0" recordCount="0"/>
								<ScoreDistribution value="2.0" recordCount="683"/>
								<ScoreDistribution value="3.0" recordCount="0"/>
							</Node>
						</Node>
						<Node>
							<SimplePredicate field="double(x8)" operator="lessOrEqual" value="34.09785461425781"/>
							<Node>
								<SimplePredicate field="double(x4)" operator="lessOrEqual" value="0.9918212890625"/>
								<Node score="3.0" recordCount="724">
									<SimplePredicate field="double(x8)" operator="lessOrEqual" value="33.51484680175781"/>
									<ScoreDistribution value="1.0" recordCount="0"/>
									<ScoreDistribution value="2.0" recordCount="0"/>
									<ScoreDistribution value="3.0" recordCount="724"/>
								</Node>
								<Node score="1.0" recordCount="71">
									<True/>
									<ScoreDistribution value="1.0" recordCount="71"/>
									<ScoreDistribution value="2.0" recordCount="0"/>
									<ScoreDistribution value="3.0" recordCount="0"/>
								</Node>
							</Node>
							<Node>
								<SimplePredicate field="double(x4)" operator="lessOrEqual" value="7.4092864990234375"/>
								<Node score="1.0" recordCount="1707">
									<SimplePredicate field="double(x10)" operator="lessOrEqual" value="0.13835074752569199"/>
									<ScoreDistribution value="1.0" recordCount="861"/>
									<ScoreDistribution value="2.0" recordCount="836"/>
									<ScoreDistribution value="3.0" recordCount="10"/>
								</Node>
								<Node score="1.0" recordCount="13773">
									<True/>
									<ScoreDistribution value="1.0" recordCount="11663"/>
									<ScoreDistribution value="2.0" recordCount="1128"/>
									<ScoreDistribution value="3.0" recordCount="982"/>
								</Node>
							</Node>
							<Node score="2.0" recordCount="1098">
								<SimplePredicate field="double(x11)" operator="lessOrEqual" value="-0.36843109130859375"/>
								<ScoreDistribution value="1.0" recordCount="186"/>
								<ScoreDistribution value="2.0" recordCount="886"/>
								<ScoreDistribution value="3.0" recordCount="26"/>
							</Node>
							<Node score="3.0" recordCount="702">
								<True/>
								<ScoreDistribution value="1.0" recordCount="300"/>
								<ScoreDistribution value="2.0" recordCount="76"/>
								<ScoreDistribution value="3.0" recordCount="326"/>
							</Node>
						</Node>
						<Node>
							<SimplePredicate field="double(x11)" operator="lessOrEqual" value="-0.43778228759765625"/>
							<Node>
								<SimplePredicate field="double(x13)" operator="lessOrEqual" value="-0.0039056396344676614"/>
								<Node score="3.0" recordCount="103">
									<SimplePredicate field="double(x1)" operator="lessOrEqual" value="6.466533660888672"/>
									<ScoreDistribution value="1.0" recordCount="24"/>
									<ScoreDistribution value="2.0" recordCount="4"/>
									<ScoreDistribution value="3.0" recordCount="75"/>
								</Node>
								<Node score="2.0" recordCount="814">
									<True/>
									<ScoreDistribution value="1.0" recordCount="2"/>
									<ScoreDistribution value="2.0" recordCount="798"/>
									<ScoreDistribution value="3.0" recordCount="14"/>
								</Node>
							</Node>
							<Node score="1.0" recordCount="8932">
								<SimplePredicate field="double(x8)" operator="lessOrEqual" value="34.9224853515625"/>
								<ScoreDistribution value="1.0" recordCount="5653"/>
								<ScoreDistribution value="2.0" recordCount="2312"/>
								<ScoreDistribution value="3.0" recordCount="967"/>
							</Node>
							<Node score="3.0" recordCount="2384">
								<True/>
								<ScoreDistribution value="1.0" recordCount="663"/>
								<ScoreDistribution value="2.0" recordCount="718"/>
								<ScoreDistribution value="3.0" recordCount="1003"/>
							</Node>
						</Node>
						<Node>
							<SimplePredicate field="double(x8)" operator="lessOrEqual" value="34.58180236816406"/>
							<Node score="3.0" recordCount="1774">
								<SimplePredicate field="double(x3)" operator="lessOrEqual" value="3.0078887939453125"/>
								<ScoreDistribution value="1.0" recordCount="270"/>
								<ScoreDistribution value="2.0" recordCount="0"/>
								<ScoreDistribution value="3.0" recordCount="1504"/>
							</Node>
							<Node score="2.0" recordCount="1774">
								<True/>
								<ScoreDistribution value="1.0" recordCount="25"/>
								<ScoreDistribution value="2.0" recordCount="1370"/>
								<ScoreDistribution value="3.0" recordCount="379"/>
							</Node>
						</Node>
						<Node score="2.0" recordCount="1735">
							<SimplePredicate field="double(x1)" operator="lessOrEqual" value="6.2696592807769775"/>
							<ScoreDistribution value="1.0" recordCount="75"/>
							<ScoreDistribution value="2.0" recordCount="1501"/>
							<ScoreDistribution value="3.0" recordCount="159"/>
						</Node>
						<Node score="3.0" recordCount="110">
							<True/>
							<ScoreDistribution value="1.0" recordCount="4"/>
							<ScoreDistribution value="2.0" recordCount="12"/>
							<ScoreDistribution value="3.0" recordCount="94"/>
						</Node>
					</Node>
				</TreeModel>
			</Segment>
			<Segment id="3">
				<True/>
				<TreeModel functionName="classification" missingValueStrategy="nullPrediction">
					<MiningSchema>
						<MiningField name="double(x1)"/>
						<MiningField name="double(x11)"/>
						<MiningField name="double(x8)"/>
						<MiningField name="double(x7)"/>
						<MiningField name="double(x10)"/>
						<MiningField name="double(x4)"/>
						<MiningField name="double(x3)"/>
						<MiningField name="double(x5)"/>
						<MiningField name="double(x15)"/>
						<MiningField name="double(x9)"/>
						<MiningField name="double(x13)"/>
						<MiningField name="double(x16)"/>
					</MiningSchema>
					<Node>
						<True/>
						<Node>
							<SimplePredicate field="double(x7)" operator="lessOrEqual" value="33.89543151855469"/>
							<Node>
								<SimplePredicate field="double(x5)" operator="lessOrEqual" value="31.02634906768799"/>
								<Node score="2.0" recordCount="1">
									<SimplePredicate field="double(x15)" operator="lessOrEqual" value="-0.9022293090820312"/>
									<ScoreDistribution value="1.0" recordCount="0"/>
									<ScoreDistribution value="2.0" recordCount="1"/>
									<ScoreDistribution value="3.0" recordCount="0"/>
								</Node>
								<Node score="1.0" recordCount="2504">
									<True/>
									<ScoreDistribution value="1.0" recordCount="2504"/>
									<ScoreDistribution value="2.0" recordCount="0"/>
									<ScoreDistribution value="3.0" recordCount="0"/>
								</Node>
							</Node>
							<Node>
								<SimplePredicate field="double(x11)" operator="lessOrEqual" value="-0.223114013671875"/>
								<Node>
									<SimplePredicate field="double(x13)" operator="lessOrEqual" value="-0.0038918412756174803"/>
									<Node score="3.0" recordCount="656">
										<SimplePredicate field="double(x5)" operator="lessOrEqual" value="33.55644226074219"/>
										<ScoreDistribution value="1.0" recordCount="250"/>
										<ScoreDistribution value="2.0" recordCount="2"/>
										<ScoreDistribution value="3.0" recordCount="404"/>
									</Node>
									<Node score="1.0" recordCount="954">
										<True/>
										<ScoreDistribution value="1.0" recordCount="492"/>
										<ScoreDistribution value="2.0" recordCount="412"/>
										<ScoreDistribution value="3.0" recordCount="50"/>
									</Node>
								</Node>
								<Node score="1.0" recordCount="11031">
									<SimplePredicate field="double(x4)" operator="lessOrEqual" value="7.409095764160156"/>
									<ScoreDistribution value="1.0" recordCount="9579"/>
									<ScoreDistribution value="2.0" recordCount="946"/>
									<ScoreDistribution value="3.0" recordCount="506"/>
								</Node>
								<Node score="2.0" recordCount="1082">
									<True/>
									<ScoreDistribution value="1.0" recordCount="245"/>
									<ScoreDistribution value="2.0" recordCount="600"/>
									<ScoreDistribution value="3.0" recordCount="237"/>
								</Node>
							</Node>
							<Node>
								<SimplePredicate field="double(x8)" operator="lessOrEqual" value="31.588287353515625"/>
								<Node score="1.0" recordCount="9">
									<SimplePredicate field="double(x1)" operator="lessOrEqual" value="1.144966959953308"/>
									<ScoreDistribution value="1.0" recordCount="9"/>
									<ScoreDistribution value="2.0" recordCount="0"/>
									<ScoreDistribution value="3.0" recordCount="0"/>
								</Node>
								<Node score="2.0" recordCount="983">
									<True/>
									<ScoreDistribution value="1.0" recordCount="0"/>
									<ScoreDistribution value="2.0" recordCount="983"/>
									<ScoreDistribution value="3.0" recordCount="0"/>
								</Node>
							</Node>
							<Node score="3.0" recordCount="714">
								<SimplePredicate field="double(x4)" operator="lessOrEqual" value="1.09405517578125"/>
								<ScoreDistribution value="1.0" recordCount="0"/>
								<ScoreDistribution value="2.0" recordCount="0"/>
								<ScoreDistribution value="3.0" recordCount="714"/>
							</Node>
							<Node score="1.0" recordCount="134">
								<True/>
								<ScoreDistribution value="1.0" recordCount="129"/>
								<ScoreDistribution value="2.0" recordCount="0"/>
								<ScoreDistribution value="3.0" recordCount="5"/>
							</Node>
						</Node>
						<Node>
							<SimplePredicate field="double(x4)" operator="lessOrEqual" value="1.9731521606445312"/>
							<Node>
								<SimplePredicate field="double(x8)" operator="lessOrEqual" value="34.71620178222656"/>
								<Node>
									<SimplePredicate field="double(x10)" operator="lessOrEqual" value="0.1236846074461937"/>
									<Node score="1.0" recordCount="18">
										<SimplePredicate field="double(x5)" operator="lessOrEqual" value="34.32573890686035"/>
										<ScoreDistribution value="1.0" recordCount="18"/>
										<ScoreDistribution value="2.0" recordCount="0"/>
										<ScoreDistribution value="3.0" recordCount="0"/>
									</Node>
									<Node score="3.0" recordCount="267">
										<True/>
										<ScoreDistribution value="1.0" recordCount="7"/>
										<ScoreDistribution value="2.0" recordCount="0"/>
										<ScoreDistribution value="3.0" recordCount="260"/>
									</Node>
								</Node>
								<Node score="1.0" recordCount="361">
									<SimplePredicate field="double(x16)" operator="lessOrEqual" value="0.02002716064453125"/>
									<ScoreDistribution value="1.0" recordCount="264"/>
									<ScoreDistribution value="2.0" recordCount="0"/>
									<ScoreDistribution value="3.0" recordCount="97"/>
								</Node>
								<Node score="1.0" recordCount="2071">
									<True/>
									<ScoreDistribution value="1.0" recordCount="2033"/>
									<ScoreDistribution value="2.0" recordCount="0"/>
									<ScoreDistribution value="3.0" recordCount="38"/>
								</Node>
							</Node>
							<Node score="2.0" recordCount="387">
								<True/>
								<ScoreDistribution value="1.0" recordCount="0"/>
								<ScoreDistribution value="2.0" recordCount="387"/>
								<ScoreDistribution value="3.0" recordCount="0"/>
							</Node>
						</Node>
						<Node>
							<SimplePredicate field="double(x10)" operator="lessOrEqual" value="0.3424231559038162"/>
							<Node>
								<SimplePredicate field="double(x3)" operator="lessOrEqual" value="3.2163619995117188"/>
								<Node score="3.0" recordCount="2167">
									<SimplePredicate field="double(x5)" operator="lessOrEqual" value="35.00811195373535"/>
									<ScoreDistribution value="1.0" recordCount="6"/>
									<ScoreDistribution value="2.0" recordCount="324"/>
									<ScoreDistribution value="3.0" recordCount="1837"/>
								</Node>
								<Node score="2.0" recordCount="361">
									<True/>
									<ScoreDistribution value="1.0" recordCount="0"/>
									<ScoreDistribution value="2.0" recordCount="361"/>
									<ScoreDistribution value="3.0" recordCount="0"/>
								</Node>
							</Node>
							<Node score="1.0" recordCount="7692">
								<SimplePredicate field="double(x11)" operator="lessOrEqual" value="-0.42404937744140625"/>
								<ScoreDistribution value="1.0" recordCount="4440"/>
								<ScoreDistribution value="2.0" recordCount="1931"/>
								<ScoreDistribution value="3.0" recordCount="1321"/>
							</Node>
							<Node score="2.0" recordCount="2614">
								<True/>
								<ScoreDistribution value="1.0" recordCount="37"/>
								<ScoreDistribution value="2.0" recordCount="2120"/>
								<ScoreDistribution value="3.0" recordCount="457"/>
							</Node>
						</Node>
						<Node>
							<SimplePredicate field="double(x3)" operator="lessOrEqual" value="2.4927139282226562"/>
							<Node score="3.0" recordCount="173">
								<SimplePredicate field="double(x1)" operator="lessOrEqual" value="2.5464621782302856"/>
								<ScoreDistribution value="1.0" recordCount="0"/>
								<ScoreDistribution value="2.0" recordCount="0"/>
								<ScoreDistribution value="3.0" recordCount="173"/>
							</Node>
							<Node score="3.0" recordCount="5">
								<True/>
								<ScoreDistribution value="1.0" recordCount="0"/>
								<ScoreDistribution value="2.0" recordCount="1"/>
								<ScoreDistribution value="3.0" recordCount="4"/>
							</Node>
						</Node>
						<Node score="2.0" recordCount="3190">
							<SimplePredicate field="double(x9)" operator="lessOrEqual" value="0.03867723606526852"/>
							<ScoreDistribution value="1.0" recordCount="46"/>
							<ScoreDistribution value="2.0" recordCount="3030"/>
							<ScoreDistribution value="3.0" recordCount="114"/>
						</Node>
						<Node score="2.0" recordCount="124">
							<True/>
							<ScoreDistribution value="1.0" recordCount="3"/>
							<ScoreDistribution value="2.0" recordCount="87"/>
							<ScoreDistribution value="3.0" recordCount="34"/>
						</Node>
					</Node>
				</TreeModel>
			</Segment>
			<Segment id="4">
				<True/>
				<TreeModel functionName="classification" missingValueStrategy="nullPrediction">
					<MiningSchema>
						<MiningField name="double(x11)"/>
						<MiningField name="double(x14)"/>
						<MiningField name="double(x8)"/>
						<MiningField name="double(x6)"/>
						<MiningField name="double(x2)"/>
						<MiningField name="double(x7)"/>
						<MiningField name="double(x10)"/>
						<MiningField name="double(x4)"/>
						<MiningField name="double(x3)"/>
						<MiningField name="double(x5)"/>
						<MiningField name="double(x13)"/>
					</MiningSchema>
					<Node>
						<True/>
						<Node>
							<SimplePredicate field="double(x8)" operator="lessOrEqual" value="34.08262634277344"/>
							<Node>
								<SimplePredicate field="double(x11)" operator="lessOrEqual" value="-0.20697784423828125"/>
								<Node>
									<SimplePredicate field="double(x3)" operator="lessOrEqual" value="7.368278503417969"/>
									<Node>
										<SimplePredicate field="double(x11)" operator="lessOrEqual" value="-0.43247222900390625"/>
										<Node score="1.0" recordCount="1879">
											<SimplePredicate field="double(x3)" operator="lessOrEqual" value="2.841949462890625"/>
											<ScoreDistribution value="1.0" recordCount="1842"/>
											<ScoreDistribution value="2.0" recordCount="25"/>
											<ScoreDistribution value="3.0" recordCount="12"/>
										</Node>
										<Node score="2.0" recordCount="918">
											<True/>
											<ScoreDistribution value="1.0" recordCount="226"/>
											<ScoreDistribution value="2.0" recordCount="649"/>
											<ScoreDistribution value="3.0" recordCount="43"/>
										</Node>
									</Node>
									<Node score="1.0" recordCount="10507">
										<SimplePredicate field="double(x11)" operator="lessOrEqual" value="-0.22972869873046875"/>
										<ScoreDistribution value="1.0" recordCount="9408"/>
										<ScoreDistribution value="2.0" recordCount="300"/>
										<ScoreDistribution value="3.0" recordCount="799"/>
									</Node>
									<Node score="1.0" recordCount="789">
										<True/>
										<ScoreDistribution value="1.0" recordCount="535"/>
										<ScoreDistribution value="2.0" recordCount="230"/>
										<ScoreDistribution value="3.0" recordCount="24"/>
									</Node>
								</Node>
								<Node>
									<SimplePredicate field="double(x11)" operator="lessOrEqual" value="-0.37053680419921875"/>
									<Node score="2.0" recordCount="439">
										<SimplePredicate field="double(x11)" operator="lessOrEqual" value="-0.4379425048828125"/>
										<ScoreDistribution value="1.0" recordCount="8"/>
										<ScoreDistribution value="2.0" recordCount="417"/>
										<ScoreDistribution value="3.0" recordCount="14"/>
									</Node>
									<Node score="2.0" recordCount="651">
										<True/>
										<ScoreDistribution value="1.0" recordCount="165"/>
										<ScoreDistribution value="2.0" recordCount="469"/>
										<ScoreDistribution value="3.0" recordCount="17"/>
									</Node>
								</Node>
								<Node score="1.0" recordCount="203">
									<SimplePredicate field="double(x7)" operator="lessOrEqual" value="32.8818359375"/>
									<ScoreDistribution value="1.0" recordCount="196"/>
									<ScoreDistribution value="2.0" recordCount="7"/>
									<ScoreDistribution value="3.0" recordCount="0"/>
								</Node>
								<Node score="3.0" recordCount="494">
									<True/>
									<ScoreDistribution value="1.0" recordCount="70"/>
									<ScoreDistribution value="2.0" recordCount="82"/>
									<ScoreDistribution value="3.0" recordCount="342"/>
								</Node>
							</Node>
							<Node>
								<SimplePredicate field="double(x2)" operator="lessOrEqual" value="0.01972051803022623"/>
								<Node>
									<SimplePredicate field="double(x6)" operator="lessOrEqual" value="0.019693655893206596"/>
									<Node score="2.0" recordCount="761">
										<SimplePredicate field="double(x5)" operator="lessOrEqual" value="31.74245262145996"/>
										<ScoreDistribution value="1.0" recordCount="0"/>
										<ScoreDistribution value="2.0" recordCount="761"/>
										<ScoreDistribution value="3.0" recordCount="0"/>
									</Node>
									<Node score="1.0" recordCount="53">
										<True/>
										<ScoreDistribution value="1.0" recordCount="36"/>
										<ScoreDistribution value="2.0" recordCount="0"/>
										<ScoreDistribution value="3.0" recordCount="17"/>
									</Node>
								</Node>
								<Node score="1.0" recordCount="479">
									<True/>
									<ScoreDistribution value="1.0" recordCount="479"/>
									<ScoreDistribution value="2.0" recordCount="0"/>
									<ScoreDistribution value="3.0" recordCount="0"/>
								</Node>
							</Node>
							<Node>
								<SimplePredicate field="double(x5)" operator="lessOrEqual" value="31.51703643798828"/>
								<Node score="2.0" recordCount="75">
									<SimplePredicate field="double(x4)" operator="lessOrEqual" value="3.427886962890625"/>
									<ScoreDistribution value="1.0" recordCount="0"/>
									<ScoreDistribution value="2.0" recordCount="75"/>
									<ScoreDistribution value="3.0" recordCount="0"/>
								</Node>
								<Node score="1.0" recordCount="5">
									<True/>
									<ScoreDistribution value="1.0" recordCount="5"/>
									<ScoreDistribution value="2.0" recordCount="0"/>
									<ScoreDistribution value="3.0" recordCount="0"/>
								</Node>
							</Node>
							<Node score="3.0" recordCount="720">
								<True/>
								<ScoreDistribution value="1.0" recordCount="0"/>
								<ScoreDistribution value="2.0" recordCount="0"/>
								<ScoreDistribution value="3.0" recordCount="720"/>
							</Node>
						</Node>
						<Node>
							<SimplePredicate field="double(x14)" operator="lessOrEqual" value="0.008414157666265965"/>
							<Node>
								<SimplePredicate field="double(x3)" operator="lessOrEqual" value="0.8092880249023438"/>
								<Node score="1.0" recordCount="232">
									<SimplePredicate field="double(x4)" operator="lessOrEqual" value="0.9634017944335938"/>
									<ScoreDistribution value="1.0" recordCount="232"/>
									<ScoreDistribution value="2.0" recordCount="0"/>
									<ScoreDistribution value="3.0" recordCount="0"/>
								</Node>
								<Node score="3.0" recordCount="9">
									<True/>
									<ScoreDistribution value="1.0" recordCount="0"/>
									<ScoreDistribution value="2.0" recordCount="0"/>
									<ScoreDistribution value="3.0" recordCount="9"/>
								</Node>
							</Node>
							<Node>
								<SimplePredicate field="double(x7)" operator="lessOrEqual" value="34.9903564453125"/>
								<Node score="2.0" recordCount="298">
									<SimplePredicate field="double(x11)" operator="lessOrEqual" value="-0.8427200317382812"/>
									<ScoreDistribution value="1.0" recordCount="0"/>
									<ScoreDistribution value="2.0" recordCount="291"/>
									<ScoreDistribution value="3.0" recordCount="7"/>
								</Node>
								<Node score="3.0" recordCount="2433">
									<True/>
									<ScoreDistribution value="1.0" recordCount="172"/>
									<ScoreDistribution value="2.0" recordCount="495"/>
									<ScoreDistribution value="3.0" recordCount="1766"/>
								</Node>
							</Node>
							<Node score="2.0" recordCount="284">
								<True/>
								<ScoreDistribution value="1.0" recordCount="0"/>
								<ScoreDistribution value="2.0" recordCount="284"/>
								<ScoreDistribution value="3.0" recordCount="0"/>
							</Node>
						</Node>
						<Node>
							<SimplePredicate field="double(x10)" operator="lessOrEqual" value="0.2529534101486206"/>
							<Node>
								<SimplePredicate field="double(x3)" operator="lessOrEqual" value="1.8762588500976562"/>
								<Node score="1.0" recordCount="1697">
									<SimplePredicate field="double(x7)" operator="lessOrEqual" value="34.52740478515625"/>
									<ScoreDistribution value="1.0" recordCount="1670"/>
									<ScoreDistribution value="2.0" recordCount="0"/>
									<ScoreDistribution value="3.0" recordCount="27"/>
								</Node>
								<Node score="2.0" recordCount="257">
									<True/>
									<ScoreDistribution value="1.0" recordCount="0"/>
									<ScoreDistribution value="2.0" recordCount="257"/>
									<ScoreDistribution value="3.0" recordCount="0"/>
								</Node>
							</Node>
							<Node score="2.0" recordCount="1522">
								<SimplePredicate field="double(x10)" operator="lessOrEqual" value="0.21722307056188583"/>
								<ScoreDistribution value="1.0" recordCount="44"/>
								<ScoreDistribution value="2.0" recordCount="836"/>
								<ScoreDistribution value="3.0" recordCount="642"/>
							</Node>
							<Node score="1.0" recordCount="5211">
								<True/>
								<ScoreDistribution value="1.0" recordCount="3377"/>
								<ScoreDistribution value="2.0" recordCount="1302"/>
								<ScoreDistribution value="3.0" recordCount="532"/>
							</Node>
						</Node>
						<Node>
							<SimplePredicate field="double(x14)" operator="lessOrEqual" value="0.009919429197907448"/>
							<Node score="2.0" recordCount="752">
								<SimplePredicate field="double(x13)" operator="lessOrEqual" value="-0.0035559735260903835"/>
								<ScoreDistribution value="1.0" recordCount="48"/>
								<ScoreDistribution value="2.0" recordCount="559"/>
								<ScoreDistribution value="3.0" recordCount="145"/>
							</Node>
							<Node score="3.0" recordCount="1236">
								<True/>
								<ScoreDistribution value="1.0" recordCount="253"/>
								<ScoreDistribution value="2.0" recordCount="366"/>
								<ScoreDistribution value="3.0" recordCount="617"/>
							</Node>
						</Node>
						<Node score="3.0" recordCount="749">
							<SimplePredicate field="double(x4)" operator="lessOrEqual" value="2.9489517211914062"/>
							<ScoreDistribution value="1.0" recordCount="293"/>
							<ScoreDistribution value="2.0" recordCount="91"/>
							<ScoreDistribution value="3.0" recordCount="365"/>
						</Node>
						<Node score="2.0" recordCount="4845">
							<True/>
							<ScoreDistribution value="1.0" recordCount="803"/>
							<ScoreDistribution value="2.0" recordCount="3712"/>
							<ScoreDistribution value="3.0" recordCount="330"/>
						</Node>
					</Node>
				</TreeModel>
			</Segment>
			<Segment id="5">
				<True/>
				<TreeModel functionName="classification" missingValueStrategy="nullPrediction">
					<MiningSchema>
						<MiningField name="double(x1)"/>
						<MiningField name="double(x11)"/>
						<MiningField name="double(x8)"/>
						<MiningField name="double(x12)"/>
						<MiningField name="double(x2)"/>
						<MiningField name="double(x7)"/>
						<MiningField name="double(x10)"/>
						<MiningField name="double(x4)"/>
						<MiningField name="double(x3)"/>
						<MiningField name="double(x5)"/>
						<MiningField name="double(x9)"/>
						<MiningField name="double(x16)"/>
					</MiningSchema>
					<Node>
						<True/>
						<Node>
							<SimplePredicate field="double(x5)" operator="lessOrEqual" value="33.966922760009766"/>
							<Node>
								<SimplePredicate field="double(x10)" operator="lessOrEqual" value="0.13228922337293625"/>
								<Node>
									<SimplePredicate field="double(x7)" operator="lessOrEqual" value="31.60821533203125"/>
									<Node>
										<SimplePredicate field="double(x9)" operator="lessOrEqual" value="0.009419272188097239"/>
										<Node score="1.0" recordCount="210">
											<SimplePredicate field="double(x8)" operator="lessOrEqual" value="31.104751586914062"/>
											<ScoreDistribution value="1.0" recordCount="210"/>
											<ScoreDistribution value="2.0" recordCount="0"/>
											<ScoreDistribution value="3.0" recordCount="0"/>
										</Node>
										<Node score="2.0" recordCount="522">
											<True/>
											<ScoreDistribution value="1.0" recordCount="4"/>
											<ScoreDistribution value="2.0" recordCount="517"/>
											<ScoreDistribution value="3.0" recordCount="1"/>
										</Node>
									</Node>
									<Node score="1.0" recordCount="310">
										<SimplePredicate field="double(x7)" operator="lessOrEqual" value="30.8074951171875"/>
										<ScoreDistribution value="1.0" recordCount="310"/>
										<ScoreDistribution value="2.0" recordCount="0"/>
										<ScoreDistribution value="3.0" recordCount="0"/>
									</Node>
									<Node score="2.0" recordCount="203">
										<True/>
										<ScoreDistribution value="1.0" recordCount="0"/>
										<ScoreDistribution value="2.0" recordCount="203"/>
										<ScoreDistribution value="3.0" recordCount="0"/>
									</Node>
								</Node>
								<Node>
									<SimplePredicate field="double(x4)" operator="lessOrEqual" value="1.0133743286132812"/>
									<Node score="3.0" recordCount="176">
										<SimplePredicate field="double(x16)" operator="lessOrEqual" value="0.02831268310546875"/>
										<ScoreDistribution value="1.0" recordCount="24"/>
										<ScoreDistribution value="2.0" recordCount="0"/>
										<ScoreDistribution value="3.0" recordCount="152"/>
									</Node>
									<Node score="3.0" recordCount="517">
										<True/>
										<ScoreDistribution value="1.0" recordCount="5"/>
										<ScoreDistribution value="2.0" recordCount="0"/>
										<ScoreDistribution value="3.0" recordCount="512"/>
									</Node>
								</Node>
								<Node score="3.0" recordCount="4">
									<SimplePredicate field="double(x12)" operator="lessOrEqual" value="0.12636566162109375"/>
									<ScoreDistribution value="1.0" recordCount="0"/>
									<ScoreDistribution value="2.0" recordCount="0"/>
									<ScoreDistribution value="3.0" recordCount="4"/>
								</Node>
								<Node score="1.0" recordCount="89">
									<True/>
									<ScoreDistribution value="1.0" recordCount="86"/>
									<ScoreDistribution value="2.0" recordCount="0"/>
									<ScoreDistribution value="3.0" recordCount="3"/>
								</Node>
							</Node>
							<Node>
								<SimplePredicate field="double(x1)" operator="lessOrEqual" value="7.3922998905181885"/>
								<Node>
									<SimplePredicate field="double(x10)" operator="lessOrEqual" value="0.24621853232383728"/>
									<Node score="1.0" recordCount="4694">
										<SimplePredicate field="double(x3)" operator="lessOrEqual" value="2.4641036987304688"/>
										<ScoreDistribution value="1.0" recordCount="3943"/>
										<ScoreDistribution value="2.0" recordCount="383"/>
										<ScoreDistribution value="3.0" recordCount="368"/>
									</Node>
									<Node score="1.0" recordCount="1366">
										<True/>
										<ScoreDistribution value="1.0" recordCount="576"/>
										<ScoreDistribution value="2.0" recordCount="553"/>
										<ScoreDistribution value="3.0" recordCount="237"/>
									</Node>
								</Node>
								<Node score="1.0" recordCount="7551">
									<SimplePredicate field="double(x1)" operator="lessOrEqual" value="6.885532379150391"/>
									<ScoreDistribution value="1.0" recordCount="7089"/>
									<ScoreDistribution value="2.0" recordCount="200"/>
									<ScoreDistribution value="3.0" recordCount="262"/>
								</Node>
								<Node score="1.0" recordCount="407">
									<True/>
									<ScoreDistribution value="1.0" recordCount="298"/>
									<ScoreDistribution value="2.0" recordCount="109"/>
									<ScoreDistribution value="3.0" recordCount="0"/>
								</Node>
							</Node>
							<Node>
								<SimplePredicate field="double(x11)" operator="lessOrEqual" value="-0.370880126953125"/>
								<Node score="2.0" recordCount="479">
									<SimplePredicate field="double(x2)" operator="lessOrEqual" value="0.009395897388458252"/>
									<ScoreDistribution value="1.0" recordCount="154"/>
									<ScoreDistribution value="2.0" recordCount="312"/>
									<ScoreDistribution value="3.0" recordCount="13"/>
								</Node>
								<Node score="2.0" recordCount="635">
									<True/>
									<ScoreDistribution value="1.0" recordCount="20"/>
									<ScoreDistribution value="2.0" recordCount="604"/>
									<ScoreDistribution value="3.0" recordCount="11"/>
								</Node>
							</Node>
							<Node score="1.0" recordCount="206">
								<SimplePredicate field="double(x8)" operator="lessOrEqual" value="33.04998779296875"/>
								<ScoreDistribution value="1.0" recordCount="199"/>
								<ScoreDistribution value="2.0" recordCount="7"/>
								<ScoreDistribution value="3.0" recordCount="0"/>
							</Node>
							<Node score="3.0" recordCount="517">
								<True/>
								<ScoreDistribution value="1.0" recordCount="88"/>
								<ScoreDistribution value="2.0" recordCount="78"/>
								<ScoreDistribution value="3.0" recordCount="351"/>
							</Node>
						</Node>
						<Node>
							<SimplePredicate field="double(x3)" operator="lessOrEqual" value="1.84478759765625"/>
							<Node>
								<SimplePredicate field="double(x8)" operator="lessOrEqual" value="34.713134765625"/>
								<Node>
									<SimplePredicate field="double(x10)" operator="lessOrEqual" value="0.12362167239189148"/>
									<Node score="1.0" recordCount="17">
										<SimplePredicate field="double(x4)" operator="lessOrEqual" value="0.9248733520507812"/>
										<ScoreDistribution value="1.0" recordCount="17"/>
										<ScoreDistribution value="2.0" recordCount="0"/>
										<ScoreDistribution value="3.0" recordCount="0"/>
									</Node>
									<Node score="3.0" recordCount="239">
										<True/>
										<ScoreDistribution value="1.0" recordCount="5"/>
										<ScoreDistribution value="2.0" recordCount="0"/>
										<ScoreDistribution value="3.0" recordCount="234"/>
									</Node>
								</Node>
								<Node score="1.0" recordCount="1887">
									<SimplePredicate field="double(x5)" operator="lessOrEqual" value="34.36491012573242"/>
									<ScoreDistribution value="1.0" recordCount="1860"/>
									<ScoreDistribution value="2.0" recordCount="0"/>
									<ScoreDistribution value="3.0" recordCount="27"/>
								</Node>
								<Node score="1.0" recordCount="473">
									<True/>
									<ScoreDistribution value="1.0" recordCount="387"/>
									<ScoreDistribution value="2.0" recordCount="0"/>
									<ScoreDistribution value="3.0" recordCount="86"/>
								</Node>
							</Node>
							<Node score="2.0" recordCount="403">
								<True/>
								<ScoreDistribution value="1.0" recordCount="0"/>
								<ScoreDistribution value="2.0" recordCount="403"/>
								<ScoreDistribution value="3.0" recordCount="0"/>
							</Node>
						</Node>
						<Node>
							<SimplePredicate field="double(x4)" operator="lessOrEqual" value="3.316497802734375"/>
							<Node>
								<SimplePredicate field="double(x10)" operator="lessOrEqual" value="0.3589201867580414"/>
								<Node score="3.0" recordCount="2287">
									<SimplePredicate field="double(x8)" operator="lessOrEqual" value="35.12867736816406"/>
									<ScoreDistribution value="1.0" recordCount="33"/>
									<ScoreDistribution value="2.0" recordCount="329"/>
									<ScoreDistribution value="3.0" recordCount="1925"/>
								</Node>
								<Node score="2.0" recordCount="350">
									<True/>
									<ScoreDistribution value="1.0" recordCount="0"/>
									<ScoreDistribution value="2.0" recordCount="350"/>
									<ScoreDistribution value="3.0" recordCount="0"/>
								</Node>
							</Node>
							<Node score="3.0" recordCount="175">
								<SimplePredicate field="double(x3)" operator="lessOrEqual" value="2.339935302734375"/>
								<ScoreDistribution value="1.0" recordCount="0"/>
								<ScoreDistribution value="2.0" recordCount="0"/>
								<ScoreDistribution value="3.0" recordCount="175"/>
							</Node>
							<Node score="2.0" recordCount="865">
								<True/>
								<ScoreDistribution value="1.0" recordCount="0"/>
								<ScoreDistribution value="2.0" recordCount="859"/>
								<ScoreDistribution value="3.0" recordCount="6"/>
							</Node>
						</Node>
						<Node>
							<SimplePredicate field="double(x10)" operator="lessOrEqual" value="0.25355978310108185"/>
							<Node score="1.0" recordCount="5506">
								<SimplePredicate field="double(x11)" operator="lessOrEqual" value="-0.40853118896484375"/>
								<ScoreDistribution value="1.0" recordCount="3547"/>
								<ScoreDistribution value="2.0" recordCount="772"/>
								<ScoreDistribution value="3.0" recordCount="1187"/>
							</Node>
							<Node score="2.0" recordCount="1189">
								<True/>
								<ScoreDistribution value="1.0" recordCount="10"/>
								<ScoreDistribution value="2.0" recordCount="1114"/>
								<ScoreDistribution value="3.0" recordCount="65"/>
							</Node>
						</Node>
						<Node score="2.0" recordCount="927">
							<SimplePredicate field="double(x11)" operator="lessOrEqual" value="-0.8409576416015625"/>
							<ScoreDistribution value="1.0" recordCount="1"/>
							<ScoreDistribution value="2.0" recordCount="918"/>
							<ScoreDistribution value="3.0" recordCount="8"/>
						</Node>
						<Node score="2.0" recordCount="5294">
							<True/>
							<ScoreDistribution value="1.0" recordCount="942"/>
							<ScoreDistribution value="2.0" recordCount="3597"/>
							<ScoreDistribution value="3.0" recordCount="755"/>
						</Node>
					</Node>
				</TreeModel>
			</Segment>
			<Segment id="6">
				<True/>
				<TreeModel functionName="classification" missingValueStrategy="nullPrediction">
					<MiningSchema>
						<MiningField name="double(x1)"/>
						<MiningField name="double(x11)"/>
						<MiningField name="double(x8)"/>
						<MiningField name="double(x6)"/>
						<MiningField name="double(x12)"/>
						<MiningField name="double(x2)"/>
						<MiningField name="double(x7)"/>
						<MiningField name="double(x10)"/>
						<MiningField name="double(x4)"/>
						<MiningField name="double(x3)"/>
						<MiningField name="double(x5)"/>
						<MiningField name="double(x15)"/>
						<MiningField name="double(x16)"/>
					</MiningSchema>
					<Node>
						<True/>
						<Node>
							<SimplePredicate field="double(x7)" operator="lessOrEqual" value="33.89088439941406"/>
							<Node>
								<SimplePredicate field="double(x2)" operator="lessOrEqual" value="0.018746938556432724"/>
								<Node>
									<SimplePredicate field="double(x6)" operator="lessOrEqual" value="0.01641179248690605"/>
									<Node>
										<SimplePredicate field="double(x8)" operator="lessOrEqual" value="31.566146850585938"/>
										<Node score="2.0" recordCount="910">
											<SimplePredicate field="double(x4)" operator="lessOrEqual" value="4.864311218261719"/>
											<ScoreDistribution value="1.0" recordCount="0"/>
											<ScoreDistribution value="2.0" recordCount="910"/>
											<ScoreDistribution value="3.0" recordCount="0"/>
										</Node>
										<Node score="1.0" recordCount="281">
											<True/>
											<ScoreDistribution value="1.0" recordCount="281"/>
											<ScoreDistribution value="2.0" recordCount="0"/>
											<ScoreDistribution value="3.0" recordCount="0"/>
										</Node>
									</Node>
									<Node score="1.0" recordCount="1110">
										<SimplePredicate field="double(x1)" operator="lessOrEqual" value="6.767272472381592"/>
										<ScoreDistribution value="1.0" recordCount="996"/>
										<ScoreDistribution value="2.0" recordCount="2"/>
										<ScoreDistribution value="3.0" recordCount="112"/>
									</Node>
									<Node score="2.0" recordCount="504">
										<True/>
										<ScoreDistribution value="1.0" recordCount="178"/>
										<ScoreDistribution value="2.0" recordCount="316"/>
										<ScoreDistribution value="3.0" recordCount="10"/>
									</Node>
								</Node>
								<Node>
									<SimplePredicate field="double(x11)" operator="lessOrEqual" value="-0.37758636474609375"/>
									<Node score="1.0" recordCount="3539">
										<SimplePredicate field="double(x2)" operator="lessOrEqual" value="0.011535730212926865"/>
										<ScoreDistribution value="1.0" recordCount="2962"/>
										<ScoreDistribution value="2.0" recordCount="322"/>
										<ScoreDistribution value="3.0" recordCount="255"/>
									</Node>
									<Node score="1.0" recordCount="1528">
										<True/>
										<ScoreDistribution value="1.0" recordCount="848"/>
										<ScoreDistribution value="2.0" recordCount="465"/>
										<ScoreDistribution value="3.0" recordCount="215"/>
									</Node>
								</Node>
								<Node score="1.0" recordCount="2336">
									<SimplePredicate field="double(x2)" operator="lessOrEqual" value="0.009043454192578793"/>
									<ScoreDistribution value="1.0" recordCount="1849"/>
									<ScoreDistribution value="2.0" recordCount="10"/>
									<ScoreDistribution value="3.0" recordCount="477"/>
								</Node>
								<Node score="1.0" recordCount="6182">
									<True/>
									<ScoreDistribution value="1.0" recordCount="5796"/>
									<ScoreDistribution value="2.0" recordCount="220"/>
									<ScoreDistribution value="3.0" recordCount="166"/>
								</Node>
							</Node>
							<Node score="3.0" recordCount="764">
								<SimplePredicate field="double(x1)" operator="lessOrEqual" value="1.026718944311142"/>
								<ScoreDistribution value="1.0" recordCount="0"/>
								<ScoreDistribution value="2.0" recordCount="0"/>
								<ScoreDistribution value="3.0" recordCount="764"/>
							</Node>
							<Node>
								<SimplePredicate field="double(x3)" operator="lessOrEqual" value="1.3589859008789062"/>
								<Node score="2.0" recordCount="29">
									<SimplePredicate field="double(x7)" operator="lessOrEqual" value="31.96539306640625"/>
									<ScoreDistribution value="1.0" recordCount="14"/>
									<ScoreDistribution value="2.0" recordCount="15"/>
									<ScoreDistribution value="3.0" recordCount="0"/>
								</Node>
								<Node score="1.0" recordCount="39">
									<True/>
									<ScoreDistribution value="1.0" recordCount="37"/>
									<ScoreDistribution value="2.0" recordCount="0"/>
									<ScoreDistribution value="3.0" recordCount="2"/>
								</Node>
							</Node>
							<Node score="2.0" recordCount="94">
								<SimplePredicate field="double(x3)" operator="lessOrEqual" value="2.376556396484375"/>
								<ScoreDistribution value="1.0" recordCount="24"/>
								<ScoreDistribution value="2.0" recordCount="70"/>
								<ScoreDistribution value="3.0" recordCount="0"/>
							</Node>
							<Node score="2.0" recordCount="697">
								<True/>
								<ScoreDistribution value="1.0" recordCount="24"/>
								<ScoreDistribution value="2.0" recordCount="670"/>
								<ScoreDistribution value="3.0" recordCount="3"/>
							</Node>
						</Node>
						<Node>
							<SimplePredicate field="double(x4)" operator="lessOrEqual" value="1.9433975219726562"/>
							<Node>
								<SimplePredicate field="double(x6)" operator="lessOrEqual" value="0.02904415037482977"/>
								<Node>
									<SimplePredicate field="double(x16)" operator="lessOrEqual" value="0.019775390625"/>
									<Node score="1.0" recordCount="225">
										<SimplePredicate field="double(x4)" operator="lessOrEqual" value="0.9412765502929688"/>
										<ScoreDistribution value="1.0" recordCount="225"/>
										<ScoreDistribution value="2.0" recordCount="0"/>
										<ScoreDistribution value="3.0" recordCount="0"/>
									</Node>
									<Node score="3.0" recordCount="249">
										<True/>
										<ScoreDistribution value="1.0" recordCount="1"/>
										<ScoreDistribution value="2.0" recordCount="8"/>
										<ScoreDistribution value="3.0" recordCount="240"/>
									</Node>
								</Node>
								<Node score="1.0" recordCount="2203">
									<SimplePredicate field="double(x8)" operator="lessOrEqual" value="34.74314880371094"/>
									<ScoreDistribution value="1.0" recordCount="2095"/>
									<ScoreDistribution value="2.0" recordCount="0"/>
									<ScoreDistribution value="3.0" recordCount="108"/>
								</Node>
								<Node score="2.0" recordCount="26">
									<True/>
									<ScoreDistribution value="1.0" recordCount="0"/>
									<ScoreDistribution value="2.0" recordCount="26"/>
									<ScoreDistribution value="3.0" recordCount="0"/>
								</Node>
							</Node>
							<Node>
								<SimplePredicate field="double(x4)" operator="lessOrEqual" value="1.404571533203125"/>
								<Node score="1.0" recordCount="2">
									<SimplePredicate field="double(x15)" operator="lessOrEqual" value="-0.0397796630859375"/>
									<ScoreDistribution value="1.0" recordCount="2"/>
									<ScoreDistribution value="2.0" recordCount="0"/>
									<ScoreDistribution value="3.0" recordCount="0"/>
								</Node>
								<Node score="3.0" recordCount="17">
									<True/>
									<ScoreDistribution value="1.0" recordCount="0"/>
									<ScoreDistribution value="2.0" recordCount="0"/>
									<ScoreDistribution value="3.0" recordCount="17"/>
								</Node>
							</Node>
							<Node score="1.0" recordCount="5">
								<SimplePredicate field="double(x5)" operator="lessOrEqual" value="34.5962028503418"/>
								<ScoreDistribution value="1.0" recordCount="5"/>
								<ScoreDistribution value="2.0" recordCount="0"/>
								<ScoreDistribution value="3.0" recordCount="0"/>
							</Node>
							<Node score="2.0" recordCount="331">
								<True/>
								<ScoreDistribution value="1.0" recordCount="0"/>
								<ScoreDistribution value="2.0" recordCount="331"/>
								<ScoreDistribution value="3.0" recordCount="0"/>
							</Node>
						</Node>
						<Node>
							<SimplePredicate field="double(x10)" operator="lessOrEqual" value="0.3421982228755951"/>
							<Node>
								<SimplePredicate field="double(x12)" operator="lessOrEqual" value="1.4369888305664062"/>
								<Node score="3.0" recordCount="301">
									<SimplePredicate field="double(x7)" operator="lessOrEqual" value="34.11767578125"/>
									<ScoreDistribution value="1.0" recordCount="5"/>
									<ScoreDistribution value="2.0" recordCount="142"/>
									<ScoreDistribution value="3.0" recordCount="154"/>
								</Node>
								<Node score="2.0" recordCount="2272">
									<True/>
									<ScoreDistribution value="1.0" recordCount="131"/>
									<ScoreDistribution value="2.0" recordCount="1868"/>
									<ScoreDistribution value="3.0" recordCount="273"/>
								</Node>
							</Node>
							<Node score="1.0" recordCount="5997">
								<SimplePredicate field="double(x10)" operator="lessOrEqual" value="0.25302983820438385"/>
								<ScoreDistribution value="1.0" recordCount="3397"/>
								<ScoreDistribution value="2.0" recordCount="869"/>
								<ScoreDistribution value="3.0" recordCount="1731"/>
							</Node>
							<Node score="2.0" recordCount="4455">
								<True/>
								<ScoreDistribution value="1.0" recordCount="1005"/>
								<ScoreDistribution value="2.0" recordCount="1921"/>
								<ScoreDistribution value="3.0" recordCount="1529"/>
							</Node>
						</Node>
						<Node>
							<SimplePredicate field="double(x1)" operator="lessOrEqual" value="2.570111393928528"/>
							<Node score="3.0" recordCount="172">
								<SimplePredicate field="double(x16)" operator="lessOrEqual" value="0.04502105712890625"/>
								<ScoreDistribution value="1.0" recordCount="0"/>
								<ScoreDistribution value="2.0" recordCount="0"/>
								<ScoreDistribution value="3.0" recordCount="172"/>
							</Node>
							<Node score="2.0" recordCount="2">
								<True/>
								<ScoreDistribution value="1.0" recordCount="0"/>
								<ScoreDistribution value="2.0" recordCount="1"/>
								<ScoreDistribution value="3.0" recordCount="1"/>
							</Node>
						</Node>
						<Node score="2.0" recordCount="886">
							<SimplePredicate field="double(x10)" operator="lessOrEqual" value="0.35330830514431"/>
							<ScoreDistribution value="1.0" recordCount="33"/>
							<ScoreDistribution value="2.0" recordCount="759"/>
							<ScoreDistribution value="3.0" recordCount="94"/>
						</Node>
						<Node score="2.0" recordCount="2342">
							<True/>
							<ScoreDistribution value="1.0" recordCount="5"/>
							<ScoreDistribution value="2.0" recordCount="2283"/>
							<ScoreDistribution value="3.0" recordCount="54"/>
						</Node>
					</Node>
				</TreeModel>
			</Segment>
			<Segment id="7">
				<True/>
				<TreeModel functionName="classification" missingValueStrategy="nullPrediction">
					<MiningSchema>
						<MiningField name="double(x1)"/>
						<MiningField name="double(x11)"/>
						<MiningField name="double(x14)"/>
						<MiningField name="double(x8)"/>
						<MiningField name="double(x6)"/>
						<MiningField name="double(x12)"/>
						<MiningField name="double(x2)"/>
						<MiningField name="double(x7)"/>
						<MiningField name="double(x10)"/>
						<MiningField name="double(x4)"/>
						<MiningField name="double(x3)"/>
						<MiningField name="double(x5)"/>
					</MiningSchema>
					<Node>
						<True/>
						<Node>
							<SimplePredicate field="double(x5)" operator="lessOrEqual" value="33.96979331970215"/>
							<Node>
								<SimplePredicate field="double(x10)" operator="lessOrEqual" value="0.13228922337293625"/>
								<Node>
									<SimplePredicate field="double(x7)" operator="lessOrEqual" value="31.49163818359375"/>
									<Node>
										<SimplePredicate field="double(x1)" operator="lessOrEqual" value="3.1301685571670532"/>
										<Node score="2.0" recordCount="743">
											<SimplePredicate field="double(x6)" operator="lessOrEqual" value="0.023829163052141666"/>
											<ScoreDistribution value="1.0" recordCount="0"/>
											<ScoreDistribution value="2.0" recordCount="743"/>
											<ScoreDistribution value="3.0" recordCount="0"/>
										</Node>
										<Node score="1.0" recordCount="434">
											<True/>
											<ScoreDistribution value="1.0" recordCount="434"/>
											<ScoreDistribution value="2.0" recordCount="0"/>
											<ScoreDistribution value="3.0" recordCount="0"/>
										</Node>
									</Node>
									<Node score="1.0" recordCount="100">
										<SimplePredicate field="double(x12)" operator="lessOrEqual" value="0.8505935668945312"/>
										<ScoreDistribution value="1.0" recordCount="100"/>
										<ScoreDistribution value="2.0" recordCount="0"/>
										<ScoreDistribution value="3.0" recordCount="0"/>
									</Node>
									<Node score="2.0" recordCount="1">
										<True/>
										<ScoreDistribution value="1.0" recordCount="0"/>
										<ScoreDistribution value="2.0" recordCount="1"/>
										<ScoreDistribution value="3.0" recordCount="0"/>
									</Node>
								</Node>
								<Node>
									<SimplePredicate field="double(x4)" operator="lessOrEqual" value="1.0112762451171875"/>
									<Node score="3.0" recordCount="696">
										<SimplePredicate field="double(x8)" operator="lessOrEqual" value="33.52473449707031"/>
										<ScoreDistribution value="1.0" recordCount="0"/>
										<ScoreDistribution value="2.0" recordCount="0"/>
										<ScoreDistribution value="3.0" recordCount="696"/>
									</Node>
									<Node score="1.0" recordCount="20">
										<True/>
										<ScoreDistribution value="1.0" recordCount="20"/>
										<ScoreDistribution value="2.0" recordCount="0"/>
										<ScoreDistribution value="3.0" recordCount="0"/>
									</Node>
								</Node>
								<Node score="1.0" recordCount="86">
									<SimplePredicate field="double(x12)" operator="lessOrEqual" value="1.3211517333984375"/>
									<ScoreDistribution value="1.0" recordCount="80"/>
									<ScoreDistribution value="2.0" recordCount="0"/>
									<ScoreDistribution value="3.0" recordCount="6"/>
								</Node>
								<Node score="3.0" recordCount="3">
									<True/>
									<ScoreDistribution value="1.0" recordCount="0"/>
									<ScoreDistribution value="2.0" recordCount="0"/>
									<ScoreDistribution value="3.0" recordCount="3"/>
								</Node>
							</Node>
							<Node>
								<SimplePredicate field="double(x4)" operator="lessOrEqual" value="7.4092864990234375"/>
								<Node>
									<SimplePredicate field="double(x10)" operator="lessOrEqual" value="0.24602878838777542"/>
									<Node score="1.0" recordCount="1633">
										<SimplePredicate field="double(x5)" operator="lessOrEqual" value="31.01283073425293"/>
										<ScoreDistribution value="1.0" recordCount="1633"/>
										<ScoreDistribution value="2.0" recordCount="0"/>
										<ScoreDistribution value="3.0" recordCount="0"/>
									</Node>
									<Node score="1.0" recordCount="4511">
										<True/>
										<ScoreDistribution value="1.0" recordCount="2912"/>
										<ScoreDistribution value="2.0" recordCount="937"/>
										<ScoreDistribution value="3.0" recordCount="662"/>
									</Node>
								</Node>
								<Node score="1.0" recordCount="7721">
									<SimplePredicate field="double(x5)" operator="lessOrEqual" value="33.93745040893555"/>
									<ScoreDistribution value="1.0" recordCount="7228"/>
									<ScoreDistribution value="2.0" recordCount="336"/>
									<ScoreDistribution value="3.0" recordCount="157"/>
								</Node>
								<Node score="1.0" recordCount="367">
									<True/>
									<ScoreDistribution value="1.0" recordCount="225"/>
									<ScoreDistribution value="2.0" recordCount="18"/>
									<ScoreDistribution value="3.0" recordCount="124"/>
								</Node>
							</Node>
							<Node>
								<SimplePredicate field="double(x5)" operator="lessOrEqual" value="33.60686111450195"/>
								<Node score="2.0" recordCount="626">
									<SimplePredicate field="double(x11)" operator="lessOrEqual" value="-0.37767791748046875"/>
									<ScoreDistribution value="1.0" recordCount="129"/>
									<ScoreDistribution value="2.0" recordCount="463"/>
									<ScoreDistribution value="3.0" recordCount="34"/>
								</Node>
								<Node score="3.0" recordCount="693">
									<True/>
									<ScoreDistribution value="1.0" recordCount="323"/>
									<ScoreDistribution value="2.0" recordCount="40"/>
									<ScoreDistribution value="3.0" recordCount="330"/>
								</Node>
							</Node>
							<Node score="2.0" recordCount="454">
								<True/>
								<ScoreDistribution value="1.0" recordCount="0"/>
								<ScoreDistribution value="2.0" recordCount="454"/>
								<ScoreDistribution value="3.0" recordCount="0"/>
							</Node>
						</Node>
						<Node>
							<SimplePredicate field="double(x2)" operator="lessOrEqual" value="0.01501815626397729"/>
							<Node>
								<SimplePredicate field="double(x1)" operator="lessOrEqual" value="1.9091666340827942"/>
								<Node>
									<SimplePredicate field="double(x8)" operator="lessOrEqual" value="34.72467041015625"/>
									<Node score="1.0" recordCount="1887">
										<SimplePredicate field="double(x5)" operator="lessOrEqual" value="34.36491012573242"/>
										<ScoreDistribution value="1.0" recordCount="1821"/>
										<ScoreDistribution value="2.0" recordCount="0"/>
										<ScoreDistribution value="3.0" recordCount="66"/>
									</Node>
									<Node score="1.0" recordCount="649">
										<True/>
										<ScoreDistribution value="1.0" recordCount="361"/>
										<ScoreDistribution value="2.0" recordCount="0"/>
										<ScoreDistribution value="3.0" recordCount="288"/>
									</Node>
								</Node>
								<Node score="2.0" recordCount="359">
									<True/>
									<ScoreDistribution value="1.0" recordCount="0"/>
									<ScoreDistribution value="2.0" recordCount="359"/>
									<ScoreDistribution value="3.0" recordCount="0"/>
								</Node>
							</Node>
							<Node>
								<SimplePredicate field="double(x8)" operator="lessOrEqual" value="34.54423522949219"/>
								<Node score="3.0" recordCount="1525">
									<SimplePredicate field="double(x3)" operator="lessOrEqual" value="2.8356552124023438"/>
									<ScoreDistribution value="1.0" recordCount="5"/>
									<ScoreDistribution value="2.0" recordCount="175"/>
									<ScoreDistribution value="3.0" recordCount="1345"/>
								</Node>
								<Node score="2.0" recordCount="4568">
									<True/>
									<ScoreDistribution value="1.0" recordCount="825"/>
									<ScoreDistribution value="2.0" recordCount="2818"/>
									<ScoreDistribution value="3.0" recordCount="925"/>
								</Node>
							</Node>
							<Node score="1.0" recordCount="5431">
								<SimplePredicate field="double(x7)" operator="lessOrEqual" value="34.71772766113281"/>
								<ScoreDistribution value="1.0" recordCount="2987"/>
								<ScoreDistribution value="2.0" recordCount="2193"/>
								<ScoreDistribution value="3.0" recordCount="251"/>
							</Node>
							<Node score="3.0" recordCount="3170">
								<True/>
								<ScoreDistribution value="1.0" recordCount="718"/>
								<ScoreDistribution value="2.0" recordCount="1097"/>
								<ScoreDistribution value="3.0" recordCount="1355"/>
							</Node>
						</Node>
						<Node>
							<SimplePredicate field="double(x1)" operator="lessOrEqual" value="1.3588889241218567"/>
							<Node score="1.0" recordCount="43">
								<SimplePredicate field="double(x8)" operator="lessOrEqual" value="34.468353271484375"/>
								<ScoreDistribution value="1.0" recordCount="43"/>
								<ScoreDistribution value="2.0" recordCount="0"/>
								<ScoreDistribution value="3.0" recordCount="0"/>
							</Node>
							<Node score="3.0" recordCount="3">
								<SimplePredicate field="double(x14)" operator="lessOrEqual" value="0.008750585839152336"/>
								<ScoreDistribution value="1.0" recordCount="0"/>
								<ScoreDistribution value="2.0" recordCount="0"/>
								<ScoreDistribution value="3.0" recordCount="3"/>
							</Node>
							<Node score="1.0" recordCount="2">
								<True/>
								<ScoreDistribution value="1.0" recordCount="2"/>
								<ScoreDistribution value="2.0" recordCount="0"/>
								<ScoreDistribution value="3.0" recordCount="0"/>
							</Node>
						</Node>
						<Node>
							<SimplePredicate field="double(x2)" operator="lessOrEqual" value="0.016518899239599705"/>
							<Node score="3.0" recordCount="50">
								<SimplePredicate field="double(x14)" operator="lessOrEqual" value="0.009129176381975412"/>
								<ScoreDistribution value="1.0" recordCount="0"/>
								<ScoreDistribution value="2.0" recordCount="15"/>
								<ScoreDistribution value="3.0" recordCount="35"/>
							</Node>
							<Node score="2.0" recordCount="247">
								<True/>
								<ScoreDistribution value="1.0" recordCount="8"/>
								<ScoreDistribution value="2.0" recordCount="227"/>
								<ScoreDistribution value="3.0" recordCount="12"/>
							</Node>
						</Node>
						<Node score="2.0" recordCount="490">
							<SimplePredicate field="double(x1)" operator="lessOrEqual" value="6.488908529281616"/>
							<ScoreDistribution value="1.0" recordCount="15"/>
							<ScoreDistribution value="2.0" recordCount="421"/>
							<ScoreDistribution value="3.0" recordCount="54"/>
						</Node>
						<Node score="2.0" recordCount="986">
							<True/>
							<ScoreDistribution value="1.0" recordCount="5"/>
							<ScoreDistribution value="2.0" recordCount="978"/>
							<ScoreDistribution value="3.0" recordCount="3"/>
						</Node>
					</Node>
				</TreeModel>
			</Segment>
			<Segment id="8">
				<True/>
				<TreeModel functionName="classification" missingValueStrategy="nullPrediction">
					<MiningSchema>
						<MiningField name="double(x1)"/>
						<MiningField name="double(x11)"/>
						<MiningField name="double(x14)"/>
						<MiningField name="double(x2)"/>
						<MiningField name="double(x7)"/>
						<MiningField name="double(x10)"/>
						<MiningField name="double(x4)"/>
						<MiningField name="double(x3)"/>
						<MiningField name="double(x5)"/>
					</MiningSchema>
					<Node>
						<True/>
						<Node>
							<SimplePredicate field="double(x7)" operator="lessOrEqual" value="33.8939208984375"/>
							<Node>
								<SimplePredicate field="double(x7)" operator="lessOrEqual" value="30.976409912109375"/>
								<Node>
									<SimplePredicate field="double(x10)" operator="lessOrEqual" value="0.5118512809276581"/>
									<Node score="1.0" recordCount="2538">
										<SimplePredicate field="double(x5)" operator="lessOrEqual" value="31.03770923614502"/>
										<ScoreDistribution value="1.0" recordCount="2538"/>
										<ScoreDistribution value="2.0" recordCount="0"/>
										<ScoreDistribution value="3.0" recordCount="0"/>
									</Node>
									<Node score="2.0" recordCount="1">
										<True/>
										<ScoreDistribution value="1.0" recordCount="0"/>
										<ScoreDistribution value="2.0" recordCount="1"/>
										<ScoreDistribution value="3.0" recordCount="0"/>
									</Node>
								</Node>
								<Node score="2.0" recordCount="1">
									<True/>
									<ScoreDistribution value="1.0" recordCount="0"/>
									<ScoreDistribution value="2.0" recordCount="1"/>
									<ScoreDistribution value="3.0" recordCount="0"/>
								</Node>
							</Node>
							<Node>
								<SimplePredicate field="double(x11)" operator="lessOrEqual" value="-0.22995758056640625"/>
								<Node>
									<SimplePredicate field="double(x10)" operator="lessOrEqual" value="0.3615884780883789"/>
									<Node score="1.0" recordCount="11285">
										<SimplePredicate field="double(x1)" operator="lessOrEqual" value="7.4495954513549805"/>
										<ScoreDistribution value="1.0" recordCount="9555"/>
										<ScoreDistribution value="2.0" recordCount="849"/>
										<ScoreDistribution value="3.0" recordCount="881"/>
									</Node>
									<Node score="2.0" recordCount="1451">
										<True/>
										<ScoreDistribution value="1.0" recordCount="425"/>
										<ScoreDistribution value="2.0" recordCount="660"/>
										<ScoreDistribution value="3.0" recordCount="366"/>
									</Node>
								</Node>
								<Node score="2.0" recordCount="170">
									<SimplePredicate field="double(x5)" operator="lessOrEqual" value="32.61974906921387"/>
									<ScoreDistribution value="1.0" recordCount="6"/>
									<ScoreDistribution value="2.0" recordCount="164"/>
									<ScoreDistribution value="3.0" recordCount="0"/>
								</Node>
								<Node score="1.0" recordCount="577">
									<True/>
									<ScoreDistribution value="1.0" recordCount="339"/>
									<ScoreDistribution value="2.0" recordCount="229"/>
									<ScoreDistribution value="3.0" recordCount="9"/>
								</Node>
							</Node>
							<Node>
								<SimplePredicate field="double(x7)" operator="lessOrEqual" value="31.445953369140625"/>
								<Node score="1.0" recordCount="11">
									<SimplePredicate field="double(x1)" operator="lessOrEqual" value="1.164346158504486"/>
									<ScoreDistribution value="1.0" recordCount="11"/>
									<ScoreDistribution value="2.0" recordCount="0"/>
									<ScoreDistribution value="3.0" recordCount="0"/>
								</Node>
								<Node score="2.0" recordCount="999">
									<True/>
									<ScoreDistribution value="1.0" recordCount="0"/>
									<ScoreDistribution value="2.0" recordCount="999"/>
									<ScoreDistribution value="3.0" recordCount="0"/>
								</Node>
							</Node>
							<Node score="3.0" recordCount="723">
								<SimplePredicate field="double(x4)" operator="lessOrEqual" value="1.09405517578125"/>
								<ScoreDistribution value="1.0" recordCount="0"/>
								<ScoreDistribution value="2.0" recordCount="0"/>
								<ScoreDistribution value="3.0" recordCount="723"/>
							</Node>
							<Node score="1.0" recordCount="165">
								<True/>
								<ScoreDistribution value="1.0" recordCount="159"/>
								<ScoreDistribution value="2.0" recordCount="0"/>
								<ScoreDistribution value="3.0" recordCount="6"/>
							</Node>
						</Node>
						<Node>
							<SimplePredicate field="double(x4)" operator="lessOrEqual" value="1.9439697265625"/>
							<Node>
								<SimplePredicate field="double(x14)" operator="lessOrEqual" value="0.008035894017666578"/>
								<Node>
									<SimplePredicate field="double(x5)" operator="lessOrEqual" value="34.65531539916992"/>
									<Node score="1.0" recordCount="101">
										<SimplePredicate field="double(x3)" operator="lessOrEqual" value="0.79803466796875"/>
										<ScoreDistribution value="1.0" recordCount="97"/>
										<ScoreDistribution value="2.0" recordCount="0"/>
										<ScoreDistribution value="3.0" recordCount="4"/>
									</Node>
									<Node score="3.0" recordCount="286">
										<True/>
										<ScoreDistribution value="1.0" recordCount="1"/>
										<ScoreDistribution value="2.0" recordCount="0"/>
										<ScoreDistribution value="3.0" recordCount="285"/>
									</Node>
								</Node>
								<Node score="2.0" recordCount="59">
									<True/>
									<ScoreDistribution value="1.0" recordCount="0"/>
									<ScoreDistribution value="2.0" recordCount="59"/>
									<ScoreDistribution value="3.0" recordCount="0"/>
								</Node>
							</Node>
							<Node>
								<SimplePredicate field="double(x10)" operator="lessOrEqual" value="0.11828074976801872"/>
								<Node score="3.0" recordCount="46">
									<SimplePredicate field="double(x7)" operator="lessOrEqual" value="34.63847351074219"/>
									<ScoreDistribution value="1.0" recordCount="3"/>
									<ScoreDistribution value="2.0" recordCount="0"/>
									<ScoreDistribution value="3.0" recordCount="43"/>
								</Node>
								<Node score="2.0" recordCount="40">
									<True/>
									<ScoreDistribution value="1.0" recordCount="0"/>
									<ScoreDistribution value="2.0" recordCount="40"/>
									<ScoreDistribution value="3.0" recordCount="0"/>
								</Node>
							</Node>
							<Node score="1.0" recordCount="2295">
								<SimplePredicate field="double(x7)" operator="lessOrEqual" value="34.52740478515625"/>
								<ScoreDistribution value="1.0" recordCount="2250"/>
								<ScoreDistribution value="2.0" recordCount="0"/>
								<ScoreDistribution value="3.0" recordCount="45"/>
							</Node>
							<Node score="2.0" recordCount="250">
								<True/>
								<ScoreDistribution value="1.0" recordCount="0"/>
								<ScoreDistribution value="2.0" recordCount="250"/>
								<ScoreDistribution value="3.0" recordCount="0"/>
							</Node>
						</Node>
						<Node>
							<SimplePredicate field="double(x4)" operator="lessOrEqual" value="3.326416015625"/>
							<Node>
								<SimplePredicate field="double(x11)" operator="lessOrEqual" value="-0.404388427734375"/>
								<Node score="2.0" recordCount="446">
									<SimplePredicate field="double(x5)" operator="lessOrEqual" value="34.12681770324707"/>
									<ScoreDistribution value="1.0" recordCount="24"/>
									<ScoreDistribution value="2.0" recordCount="409"/>
									<ScoreDistribution value="3.0" recordCount="13"/>
								</Node>
								<Node score="2.0" recordCount="1775">
									<True/>
									<ScoreDistribution value="1.0" recordCount="0"/>
									<ScoreDistribution value="2.0" recordCount="963"/>
									<ScoreDistribution value="3.0" recordCount="812"/>
								</Node>
							</Node>
							<Node score="3.0" recordCount="1383">
								<SimplePredicate field="double(x5)" operator="lessOrEqual" value="34.79229927062988"/>
								<ScoreDistribution value="1.0" recordCount="0"/>
								<ScoreDistribution value="2.0" recordCount="8"/>
								<ScoreDistribution value="3.0" recordCount="1375"/>
							</Node>
							<Node score="2.0" recordCount="128">
								<True/>
								<ScoreDistribution value="1.0" recordCount="0"/>
								<ScoreDistribution value="2.0" recordCount="128"/>
								<ScoreDistribution value="3.0" recordCount="0"/>
							</Node>
						</Node>
						<Node>
							<SimplePredicate field="double(x2)" operator="lessOrEqual" value="0.013982742559164762"/>
							<Node score="1.0" recordCount="8399">
								<SimplePredicate field="double(x11)" operator="lessOrEqual" value="-0.425811767578125"/>
								<ScoreDistribution value="1.0" recordCount="4519"/>
								<ScoreDistribution value="2.0" recordCount="2630"/>
								<ScoreDistribution value="3.0" recordCount="1250"/>
							</Node>
							<Node score="2.0" recordCount="2553">
								<True/>
								<ScoreDistribution value="1.0" recordCount="62"/>
								<ScoreDistribution value="2.0" recordCount="1998"/>
								<ScoreDistribution value="3.0" recordCount="493"/>
							</Node>
						</Node>
						<Node score="3.0" recordCount="90">
							<SimplePredicate field="double(x14)" operator="lessOrEqual" value="0.008063088171184063"/>
							<ScoreDistribution value="1.0" recordCount="0"/>
							<ScoreDistribution value="2.0" recordCount="25"/>
							<ScoreDistribution value="3.0" recordCount="65"/>
						</Node>
						<Node score="2.0" recordCount="1726">
							<True/>
							<ScoreDistribution value="1.0" recordCount="54"/>
							<ScoreDistribution value="2.0" recordCount="1643"/>
							<ScoreDistribution value="3.0" recordCount="29"/>
						</Node>
					</Node>
				</TreeModel>
			</Segment>
			<Segment id="9">
				<True/>
				<TreeModel functionName="classification" missingValueStrategy="nullPrediction">
					<MiningSchema>
						<MiningField name="double(x1)"/>
						<MiningField name="double(x11)"/>
						<MiningField name="double(x14)"/>
						<MiningField name="double(x8)"/>
						<MiningField name="double(x2)"/>
						<MiningField name="double(x7)"/>
						<MiningField name="double(x10)"/>
						<MiningField name="double(x4)"/>
						<MiningField name="double(x3)"/>
						<MiningField name="double(x5)"/>
						<MiningField name="double(x15)"/>
						<MiningField name="double(x9)"/>
						<MiningField name="double(x16)"/>
					</MiningSchema>
					<Node>
						<True/>
						<Node>
							<SimplePredicate field="double(x7)" operator="lessOrEqual" value="33.89695739746094"/>
							<Node>
								<SimplePredicate field="double(x3)" operator="lessOrEqual" value="0.8684158325195312"/>
								<Node score="1.0" recordCount="84">
									<SimplePredicate field="double(x2)" operator="lessOrEqual" value="0.01806386560201645"/>
									<ScoreDistribution value="1.0" recordCount="84"/>
									<ScoreDistribution value="2.0" recordCount="0"/>
									<ScoreDistribution value="3.0" recordCount="0"/>
								</Node>
								<Node score="3.0" recordCount="738">
									<True/>
									<ScoreDistribution value="1.0" recordCount="0"/>
									<ScoreDistribution value="2.0" recordCount="0"/>
									<ScoreDistribution value="3.0" recordCount="738"/>
								</Node>
							</Node>
							<Node>
								<SimplePredicate field="double(x1)" operator="lessOrEqual" value="7.408643960952759"/>
								<Node>
									<SimplePredicate field="double(x10)" operator="lessOrEqual" value="0.13395269960165024"/>
									<Node score="1.0" recordCount="574">
										<SimplePredicate field="double(x7)" operator="lessOrEqual" value="30.946365356445312"/>
										<ScoreDistribution value="1.0" recordCount="574"/>
										<ScoreDistribution value="2.0" recordCount="0"/>
										<ScoreDistribution value="3.0" recordCount="0"/>
									</Node>
									<Node score="2.0" recordCount="878">
										<True/>
										<ScoreDistribution value="1.0" recordCount="81"/>
										<ScoreDistribution value="2.0" recordCount="787"/>
										<ScoreDistribution value="3.0" recordCount="10"/>
									</Node>
								</Node>
								<Node score="1.0" recordCount="2859">
									<SimplePredicate field="double(x11)" operator="lessOrEqual" value="-0.43338775634765625"/>
									<ScoreDistribution value="1.0" recordCount="2072"/>
									<ScoreDistribution value="2.0" recordCount="721"/>
									<ScoreDistribution value="3.0" recordCount="66"/>
								</Node>
								<Node score="1.0" recordCount="11055">
									<True/>
									<ScoreDistribution value="1.0" recordCount="9672"/>
									<ScoreDistribution value="2.0" recordCount="529"/>
									<ScoreDistribution value="3.0" recordCount="854"/>
								</Node>
							</Node>
							<Node>
								<SimplePredicate field="double(x1)" operator="lessOrEqual" value="8.291385650634766"/>
								<Node score="2.0" recordCount="327">
									<SimplePredicate field="double(x11)" operator="lessOrEqual" value="-0.37060546875"/>
									<ScoreDistribution value="1.0" recordCount="64"/>
									<ScoreDistribution value="2.0" recordCount="233"/>
									<ScoreDistribution value="3.0" recordCount="30"/>
								</Node>
								<Node score="3.0" recordCount="498">
									<True/>
									<ScoreDistribution value="1.0" recordCount="133"/>
									<ScoreDistribution value="2.0" recordCount="11"/>
									<ScoreDistribution value="3.0" recordCount="354"/>
								</Node>
							</Node>
							<Node score="2.0" recordCount="778">
								<SimplePredicate field="double(x11)" operator="lessOrEqual" value="-0.3727569580078125"/>
								<ScoreDistribution value="1.0" recordCount="65"/>
								<ScoreDistribution value="2.0" recordCount="713"/>
								<ScoreDistribution value="3.0" recordCount="0"/>
							</Node>
							<Node score="1.0" recordCount="177">
								<True/>
								<ScoreDistribution value="1.0" recordCount="114"/>
								<ScoreDistribution value="2.0" recordCount="60"/>
								<ScoreDistribution value="3.0" recordCount="3"/>
							</Node>
						</Node>
						<Node>
							<SimplePredicate field="double(x10)" operator="lessOrEqual" value="0.3427324444055557"/>
							<Node>
								<SimplePredicate field="double(x5)" operator="lessOrEqual" value="35.090532302856445"/>
								<Node>
									<SimplePredicate field="double(x11)" operator="lessOrEqual" value="-0.4365234375"/>
									<Node score="3.0" recordCount="1122">
										<SimplePredicate field="double(x14)" operator="lessOrEqual" value="0.008056238759309053"/>
										<ScoreDistribution value="1.0" recordCount="158"/>
										<ScoreDistribution value="2.0" recordCount="93"/>
										<ScoreDistribution value="3.0" recordCount="871"/>
									</Node>
									<Node score="1.0" recordCount="9493">
										<True/>
										<ScoreDistribution value="1.0" recordCount="6201"/>
										<ScoreDistribution value="2.0" recordCount="2060"/>
										<ScoreDistribution value="3.0" recordCount="1232"/>
									</Node>
								</Node>
								<Node score="3.0" recordCount="1725">
									<SimplePredicate field="double(x5)" operator="lessOrEqual" value="34.20678520202637"/>
									<ScoreDistribution value="1.0" recordCount="260"/>
									<ScoreDistribution value="2.0" recordCount="352"/>
									<ScoreDistribution value="3.0" recordCount="1113"/>
								</Node>
								<Node score="2.0" recordCount="2769">
									<True/>
									<ScoreDistribution value="1.0" recordCount="184"/>
									<ScoreDistribution value="2.0" recordCount="1712"/>
									<ScoreDistribution value="3.0" recordCount="873"/>
								</Node>
							</Node>
							<Node>
								<SimplePredicate field="double(x8)" operator="lessOrEqual" value="35.211395263671875"/>
								<Node score="2.0" recordCount="41">
									<SimplePredicate field="double(x15)" operator="lessOrEqual" value="-0.04579925537109375"/>
									<ScoreDistribution value="1.0" recordCount="4"/>
									<ScoreDistribution value="2.0" recordCount="37"/>
									<ScoreDistribution value="3.0" recordCount="0"/>
								</Node>
								<Node score="1.0" recordCount="13">
									<True/>
									<ScoreDistribution value="1.0" recordCount="9"/>
									<ScoreDistribution value="2.0" recordCount="4"/>
									<ScoreDistribution value="3.0" recordCount="0"/>
								</Node>
							</Node>
							<Node score="2.0" recordCount="19">
								<SimplePredicate field="double(x5)" operator="lessOrEqual" value="35.11141014099121"/>
								<ScoreDistribution value="1.0" recordCount="5"/>
								<ScoreDistribution value="2.0" recordCount="14"/>
								<ScoreDistribution value="3.0" recordCount="0"/>
							</Node>
							<Node score="2.0" recordCount="905">
								<True/>
								<ScoreDistribution value="1.0" recordCount="0"/>
								<ScoreDistribution value="2.0" recordCount="905"/>
								<ScoreDistribution value="3.0" recordCount="0"/>
							</Node>
						</Node>
						<Node>
							<SimplePredicate field="double(x9)" operator="lessOrEqual" value="0.029707946814596653"/>
							<Node>
								<SimplePredicate field="double(x16)" operator="lessOrEqual" value="0.032501220703125"/>
								<Node score="3.0" recordCount="127">
									<SimplePredicate field="double(x4)" operator="lessOrEqual" value="2.712249755859375"/>
									<ScoreDistribution value="1.0" recordCount="5"/>
									<ScoreDistribution value="2.0" recordCount="0"/>
									<ScoreDistribution value="3.0" recordCount="122"/>
								</Node>
								<Node score="2.0" recordCount="1238">
									<True/>
									<ScoreDistribution value="1.0" recordCount="9"/>
									<ScoreDistribution value="2.0" recordCount="1137"/>
									<ScoreDistribution value="3.0" recordCount="92"/>
								</Node>
							</Node>
							<Node score="2.0" recordCount="271">
								<SimplePredicate field="double(x10)" operator="lessOrEqual" value="0.3487752825021744"/>
								<ScoreDistribution value="1.0" recordCount="15"/>
								<ScoreDistribution value="2.0" recordCount="238"/>
								<ScoreDistribution value="3.0" recordCount="18"/>
							</Node>
							<Node score="2.0" recordCount="1484">
								<True/>
								<ScoreDistribution value="1.0" recordCount="9"/>
								<ScoreDistribution value="2.0" recordCount="1459"/>
								<ScoreDistribution value="3.0" recordCount="16"/>
							</Node>
						</Node>
						<Node>
							<SimplePredicate field="double(x3)" operator="lessOrEqual" value="2.5157928466796875"/>
							<Node score="1.0" recordCount="14">
								<SimplePredicate field="double(x4)" operator="lessOrEqual" value="1.9817352294921875"/>
								<ScoreDistribution value="1.0" recordCount="14"/>
								<ScoreDistribution value="2.0" recordCount="0"/>
								<ScoreDistribution value="3.0" recordCount="0"/>
							</Node>
							<Node score="3.0" recordCount="57">
								<True/>
								<ScoreDistribution value="1.0" recordCount="0"/>
								<ScoreDistribution value="2.0" recordCount="1"/>
								<ScoreDistribution value="3.0" recordCount="56"/>
							</Node>
						</Node>
						<Node score="2.0" recordCount="115">
							<SimplePredicate field="double(x5)" operator="lessOrEqual" value="34.266611099243164"/>
							<ScoreDistribution value="1.0" recordCount="1"/>
							<ScoreDistribution value="2.0" recordCount="72"/>
							<ScoreDistribution value="3.0" recordCount="42"/>
						</Node>
						<Node score="2.0" recordCount="137">
							<True/>
							<ScoreDistribution value="1.0" recordCount="1"/>
							<ScoreDistribution value="2.0" recordCount="132"/>
							<ScoreDistribution value="3.0" recordCount="4"/>
						</Node>
					</Node>
				</TreeModel>
			</Segment>
			<Segment id="10">
				<True/>
				<TreeModel functionName="classification" missingValueStrategy="nullPrediction">
					<MiningSchema>
						<MiningField name="double(x1)"/>
						<MiningField name="double(x11)"/>
						<MiningField name="double(x8)"/>
						<MiningField name="double(x2)"/>
						<MiningField name="double(x7)"/>
						<MiningField name="double(x10)"/>
						<MiningField name="double(x4)"/>
						<MiningField name="double(x3)"/>
						<MiningField name="double(x5)"/>
						<MiningField name="double(x13)"/>
						<MiningField name="double(x16)"/>
					</MiningSchema>
					<Node>
						<True/>
						<Node>
							<SimplePredicate field="double(x5)" operator="lessOrEqual" value="33.966922760009766"/>
							<Node>
								<SimplePredicate field="double(x2)" operator="lessOrEqual" value="0.01919338572770357"/>
								<Node>
									<SimplePredicate field="double(x1)" operator="lessOrEqual" value="7.709723472595215"/>
									<Node>
										<SimplePredicate field="double(x2)" operator="lessOrEqual" value="0.013930384069681168"/>
										<Node score="3.0" recordCount="312">
											<SimplePredicate field="double(x2)" operator="lessOrEqual" value="0.005670049460604787"/>
											<ScoreDistribution value="1.0" recordCount="89"/>
											<ScoreDistribution value="2.0" recordCount="12"/>
											<ScoreDistribution value="3.0" recordCount="211"/>
										</Node>
										<Node score="1.0" recordCount="9943">
											<True/>
											<ScoreDistribution value="1.0" recordCount="9244"/>
											<ScoreDistribution value="2.0" recordCount="374"/>
											<ScoreDistribution value="3.0" recordCount="325"/>
										</Node>
									</Node>
									<Node score="1.0" recordCount="1824">
										<SimplePredicate field="double(x5)" operator="lessOrEqual" value="31.00760841369629"/>
										<ScoreDistribution value="1.0" recordCount="1824"/>
										<ScoreDistribution value="2.0" recordCount="0"/>
										<ScoreDistribution value="3.0" recordCount="0"/>
									</Node>
									<Node score="1.0" recordCount="2958">
										<True/>
										<ScoreDistribution value="1.0" recordCount="1402"/>
										<ScoreDistribution value="2.0" recordCount="1195"/>
										<ScoreDistribution value="3.0" recordCount="361"/>
									</Node>
								</Node>
								<Node>
									<SimplePredicate field="double(x4)" operator="lessOrEqual" value="8.328056335449219"/>
									<Node score="3.0" recordCount="411">
										<SimplePredicate field="double(x16)" operator="lessOrEqual" value="0.05303192138671875"/>
										<ScoreDistribution value="1.0" recordCount="71"/>
										<ScoreDistribution value="2.0" recordCount="1"/>
										<ScoreDistribution value="3.0" recordCount="339"/>
									</Node>
									<Node score="2.0" recordCount="222">
										<True/>
										<ScoreDistribution value="1.0" recordCount="53"/>
										<ScoreDistribution value="2.0" recordCount="138"/>
										<ScoreDistribution value="3.0" recordCount="31"/>
									</Node>
								</Node>
								<Node score="2.0" recordCount="554">
									<SimplePredicate field="double(x11)" operator="lessOrEqual" value="-0.371337890625"/>
									<ScoreDistribution value="1.0" recordCount="83"/>
									<ScoreDistribution value="2.0" recordCount="471"/>
									<ScoreDistribution value="3.0" recordCount="0"/>
								</Node>
								<Node score="1.0" recordCount="178">
									<True/>
									<ScoreDistribution value="1.0" recordCount="136"/>
									<ScoreDistribution value="2.0" recordCount="33"/>
									<ScoreDistribution value="3.0" recordCount="9"/>
								</Node>
							</Node>
							<Node score="3.0" recordCount="738">
								<SimplePredicate field="double(x4)" operator="lessOrEqual" value="1.1106491088867188"/>
								<ScoreDistribution value="1.0" recordCount="0"/>
								<ScoreDistribution value="2.0" recordCount="0"/>
								<ScoreDistribution value="3.0" recordCount="738"/>
							</Node>
							<Node score="1.0" recordCount="22">
								<SimplePredicate field="double(x8)" operator="lessOrEqual" value="30.512222290039062"/>
								<ScoreDistribution value="1.0" recordCount="22"/>
								<ScoreDistribution value="2.0" recordCount="0"/>
								<ScoreDistribution value="3.0" recordCount="0"/>
							</Node>
							<Node score="2.0" recordCount="689">
								<SimplePredicate field="double(x13)" operator="lessOrEqual" value="-0.002234050305560231"/>
								<ScoreDistribution value="1.0" recordCount="31"/>
								<ScoreDistribution value="2.0" recordCount="655"/>
								<ScoreDistribution value="3.0" recordCount="3"/>
							</Node>
